{"learner":{"attributes":{"best_iteration":"199","best_ntree_limit":"200","scikit_learn":"{\"objective\": \"reg:squarederror\", \"max_leaves\": null, \"max_bin\": null, \"grow_policy\": null, \"learning_rate\": 0.1, \"verbosity\": null, \"booster\": null, \"tree_method\": null, \"min_child_weight\": null, \"max_delta_step\": null, \"subsample\": null, \"sampling_method\": null, \"colsample_bytree\": null, \"colsample_bylevel\": null, \"colsample_bynode\": null, \"reg_alpha\": null, \"reg_lambda\": null, \"scale_pos_weight\": null, \"base_score\": null, \"missing\": NaN, \"num_parallel_tree\": null, \"random_state\": 33, \"n_jobs\": null, \"monotone_constraints\": null, \"interaction_constraints\": null, \"importance_type\": null, \"gpu_id\": null, \"validate_parameters\": null, \"predictor\": null, \"enable_categorical\": false, \"feature_types\": null, \"max_cat_to_onehot\": null, \"max_cat_threshold\": null, \"eval_metric\": null, \"early_stopping_rounds\": null, \"callbacks\": null, \"_estimator_type\": \"regressor\"}"},"feature_names":[],"feature_types":[],"gradient_booster":{"model":{"gbtree_model_param":{"num_parallel_tree":"1","num_trees":"200","size_leaf_vector":"0"},"tree_info":[0,0,0,0,0,0,0,0,0,0,0,0,0,0,0,0,0,0,0,0,0,0,0,0,0,0,0,0,0,0,0,0,0,0,0,0,0,0,0,0,0,0,0,0,0,0,0,0,0,0,0,0,0,0,0,0,0,0,0,0,0,0,0,0,0,0,0,0,0,0,0,0,0,0,0,0,0,0,0,0,0,0,0,0,0,0,0,0,0,0,0,0,0,0,0,0,0,0,0,0,0,0,0,0,0,0,0,0,0,0,0,0,0,0,0,0,0,0,0,0,0,0,0,0,0,0,0,0,0,0,0,0,0,0,0,0,0,0,0,0,0,0,0,0,0,0,0,0,0,0,0,0,0,0,0,0,0,0,0,0,0,0,0,0,0,0,0,0,0,0,0,0,0,0,0,0,0,0,0,0,0,0,0,0,0,0,0,0,0,0,0,0,0,0,0,0,0,0,0,0],"trees":[{"base_weights":[-5.236452E-1,-6.697972E-1,8.8431877E-1,-7.786753E-1,8.656719E-1,7.5716645E-1,1.6654795E0,-8.508969E-1,7.251162E-1,7.26246E-1,1.6894704E0,6.888498E-1,1.9569156E0,1.7010508E0,3.0403993E-1,-9.5575786E-1,-7.3442176E-2,5.698339E-1,1.5983553E0,6.319841E-1,1.6975181E0,1.7294947E0,-5.581063E-2,6.5085083E-1,2.1627235E0,2.167442E0,9.9918324E-1,1.7461337E0,5.431903E-1],"categories":[],"categories_nodes":[],"categories_segments":[],"categories_sizes":[],"default_left":[1,1,1,1,1,1,1,1,1,1,1,1,1,1,0,0,0,0,0,0,0,0,0,0,0,0,0,0,0],"id":0,"left_children":[1,3,5,7,9,11,13,15,17,19,21,23,25,27,-1,-1,-1,-1,-1,-1,-1,-1,-1,-1,-1,-1,-1,-1,-1],"loss_changes":[1.1068475E3,8.150032E2,4.8998108E1,4.946665E2,3.587242E1,3.4469727E1,2.8727722E0,3.5382812E2,2.7429306E1,2.437918E1,3.309784E0,2.1834763E1,2.4717789E0,2.6010895E0,0E0,0E0,0E0,0E0,0E0,0E0,0E0,0E0,0E0,0E0,0E0,0E0,0E0,0E0,0E0],"parents":[2147483647,0,0,1,1,2,2,3,3,4,4,5,5,6,6,7,7,8,8,9,9,10,10,11,11,12,12,13,13],"right_children":[2,4,6,8,10,12,14,16,18,20,22,24,26,28,-1,-1,-1,-1,-1,-1,-1,-1,-1,-1,-1,-1,-1,-1,-1],"split_conditions":[4.45902E-2,4.5465548E-2,4.8347313E-2,4.45902E-2,9.9620305E-2,1.1977115E-1,1.7916644E-1,4.45902E-2,4.8347313E-2,9.949899E-2,2.2824898E-1,1.20136544E-1,1.2732872E-1,2.4519776E-1,3.0403992E-2,-9.557579E-2,-7.3442175E-3,5.698339E-2,1.5983553E-1,6.319841E-2,1.6975181E-1,1.7294948E-1,-5.581063E-3,6.508508E-2,2.1627235E-1,2.1674421E-1,9.991833E-2,1.7461337E-1,5.431903E-2],"split_indices":[99,100,154,98,155,168,137,66,147,161,187,195,162,19,0,0,0,0,0,0,0,0,0,0,0,0,0,0,0],"split_type":[0,0,0,0,0,0,0,0,0,0,0,0,0,0,0,0,0,0,0,0,0,0,0,0,0,0,0,0,0],"sum_hessian":[5.375E3,4.87E3,5.05E2,4.548E3,3.22E2,4.36E2,6.9E1,4.34E3,2.08E2,2.77E2,4.5E1,4.14E2,2.2E1,6.7E1,2E0,3.824E3,5.16E2,1.78E2,3E1,2.54E2,2.3E1,4.4E1,1E0,4.05E2,9E0,1.7E1,5E0,6.4E1,3E0],"tree_param":{"num_deleted":"0","num_feature":"202","num_nodes":"29","size_leaf_vector":"0"}},{"base_weights":[-4.7102556E-1,-5.948327E-1,9.157845E-1,-6.9569266E-1,7.451752E-1,8.065894E-1,1.6520969E0,-7.928665E-1,2.4647774E-1,6.362467E-1,1.694904E0,6.8458045E-1,1.3117546E0,1.7246226E0,-2.0406465E-1,-8.743734E-1,2.3346321E-1,1.5978426E-1,1.3970647E0,5.2005506E-1,1.1256778E0,1.9215436E0,6.8980193E-1,5.9726936E-1,1.2047945E0,1.4266466E0,4.3378112E-1,1.8345346E0,8.6331135E-1,-4.7919762E-1,1.7310065E-1],"categories":[],"categories_nodes":[],"categories_segments":[],"categories_sizes":[],"default_left":[1,1,1,1,1,1,1,1,1,1,1,1,1,1,1,0,0,0,0,0,0,0,0,0,0,0,0,0,0,1,1],"id":1,"left_children":[1,3,5,7,9,11,13,15,17,19,21,23,25,27,-1,-1,-1,-1,-1,-1,-1,-1,-1,-1,-1,-1,-1,-1,-1,-1,-1],"loss_changes":[9.2358777E2,6.6763416E2,3.4124573E1,4.2052124E2,3.4716187E1,2.2892975E1,7.8906097E0,3.4836743E2,4.266858E1,1.7157356E1,6.647377E0,1.3497025E1,6.84568E0,3.5283203E0,3.9426127E-1,0E0,0E0,0E0,0E0,0E0,0E0,0E0,0E0,0E0,0E0,0E0,0E0,0E0,0E0,0E0,0E0],"parents":[2147483647,0,0,1,1,2,2,3,3,4,4,5,5,6,6,7,7,8,8,9,9,10,10,11,11,12,12,13,13,14,14],"right_children":[2,4,6,8,10,12,14,16,18,20,22,24,26,28,-1,-1,-1,-1,-1,-1,-1,-1,-1,-1,-1,-1,-1,-1,-1,-1,-1],"split_conditions":[4.5465548E-2,4.5465548E-2,4.5465548E-2,4.073654E-2,4.8347313E-2,4.5465548E-2,1.8053004E-1,4.45902E-2,1.1304337E-1,1.0941858E-1,1.3713604E-1,9.895677E-2,1.6846806E-1,1.4068083E-1,-2.0406466E-2,-8.743734E-2,2.3346322E-2,1.5978426E-2,1.3970648E-1,5.2005507E-2,1.1256778E-1,1.9215436E-1,6.8980195E-2,5.9726935E-2,1.2047946E-1,1.4266466E-1,4.337811E-2,1.8345347E-1,8.633114E-2,-4.791976E-2,1.7310066E-2],"split_indices":[103,104,172,77,168,136,49,78,134,135,128,146,122,92,1,0,0,0,0,0,0,0,0,0,0,0,0,0,0,2147483647,2147483647],"split_type":[0,0,0,0,0,0,0,0,0,0,0,0,0,0,0,0,0,0,0,0,0,0,0,0,0,0,0,0,0,0,0],"sum_hessian":[5.375E3,4.935E3,4.4E2,4.59E3,3.45E2,3.85E2,5.5E1,4.161E3,4.29E2,3.11E2,3.4E1,3.12E2,7.3E1,5.3E1,2E0,3.855E3,3.06E2,4E2,2.9E1,2.53E2,5.8E1,2.7E1,7E0,2.69E2,4.3E1,6.4E1,9E0,4.6E1,7E0,1E0,1E0],"tree_param":{"num_deleted":"2","num_feature":"202","num_nodes":"31","size_leaf_vector":"0"}},{"base_weights":[-4.2371228E-1,-5.66668E-1,5.82953E-1,-6.926525E-1,5.6545764E-1,4.704956E-1,1.3398386E0,-7.6995164E-1,4.8304957E-1,4.567397E-1,1.6126063E0,3.604277E-1,1.1495539E0,1.5129926E0,8.29483E-1,-8.535946E-1,-8.711653E-2,3.663298E-1,1.3734716E0,3.7213472E-1,1.3700069E0,1.6910374E0,4.0553555E-1,2.577478E-1,8.496206E-1,1.2949264E0,7.5033873E-1,1.5681772E0,3.0697513E-1,1.0091234E0,-3.2100058E-1],"categories":[],"categories_nodes":[],"categories_segments":[],"categories_sizes":[],"default_left":[1,1,1,1,1,1,1,1,1,1,1,1,1,1,1,0,0,0,0,0,0,0,0,0,0,0,0,0,0,0,0],"id":2,"left_children":[1,3,5,7,9,11,13,15,17,19,21,23,25,27,29,-1,-1,-1,-1,-1,-1,-1,-1,-1,-1,-1,-1,-1,-1,-1,-1],"loss_changes":[7.7398254E2,6.718954E2,5.6313156E1,3.8543372E2,5.2997757E1,4.3235275E1,6.344803E0,2.270122E2,2.6726479E1,3.2637703E1,3.479782E0,2.5097076E1,3.72921E0,3.711502E0,5.284092E0,0E0,0E0,0E0,0E0,0E0,0E0,0E0,0E0,0E0,0E0,0E0,0E0,0E0,0E0,0E0,0E0],"parents":[2147483647,0,0,1,1,2,2,3,3,4,4,5,5,6,6,7,7,8,8,9,9,10,10,11,11,12,12,13,13,14,14],"right_children":[2,4,6,8,10,12,14,16,18,20,22,24,26,28,30,-1,-1,-1,-1,-1,-1,-1,-1,-1,-1,-1,-1,-1,-1,-1,-1],"split_conditions":[9.005575E-2,8.6202085E-2,4.45902E-2,4.073654E-2,5.0397497E-2,4.45902E-2,1.2148466E-1,4.073654E-2,4.5465548E-2,4.8347313E-2,2.3394966E-1,9.005575E-2,1.3088372E-1,2.0074716E-1,1.3261576E-1,-8.535946E-2,-8.711654E-3,3.663298E-2,1.3734716E-1,3.721347E-2,1.370007E-1,1.6910374E-1,4.0553555E-2,2.577478E-2,8.496206E-2,1.2949264E-1,7.503387E-2,1.5681772E-1,3.0697513E-2,1.0091235E-1,-3.210006E-2],"split_indices":[83,84,150,85,170,134,8,62,147,152,175,109,98,74,57,0,0,0,0,0,0,0,0,0,0,0,0,0,0,0,0],"split_type":[0,0,0,0,0,0,0,0,0,0,0,0,0,0,0,0,0,0,0,0,0,0,0,0,0,0,0,0,0,0,0],"sum_hessian":[5.375E3,4.707E3,6.68E2,4.236E3,4.71E2,5.83E2,8.5E1,3.975E3,2.61E2,4.28E2,4.3E1,5.03E2,8E1,6.2E1,2.3E1,3.541E3,4.34E2,2.32E2,2.9E1,3.93E2,3.5E1,4E1,3E0,4.17E2,8.6E1,5.7E1,2.3E1,5.9E1,3E0,2E1,3E0],"tree_param":{"num_deleted":"0","num_feature":"202","num_nodes":"31","size_leaf_vector":"0"}},{"base_weights":[-3.8114846E-1,-4.7316357E-1,9.578954E-1,-6.066458E-1,2.662838E-1,8.961029E-1,1.8715369E0,-7.180362E-1,2.0699055E-1,1.7959371E-1,1.3273832E0,9.2068404E-1,-8.661445E-1,1.9349235E0,3.019027E-1,-7.8712404E-1,1.859E-1,1.3074052E-1,1.0185081E0,1.14692904E-1,1.0567253E0,1.3704466E0,-5.636177E-1,8.3169705E-1,1.295399E0,2.0411673E0,6.5248567E-1],"categories":[],"categories_nodes":[],"categories_segments":[],"categories_sizes":[],"default_left":[1,1,1,1,1,1,1,1,1,1,1,1,0,1,0,0,0,0,0,0,0,0,0,0,0,0,0],"id":3,"left_children":[1,3,5,7,9,11,13,15,17,19,21,23,-1,25,-1,-1,-1,-1,-1,-1,-1,-1,-1,-1,-1,-1,-1],"loss_changes":[6.6284247E2,4.9673682E2,1.785675E1,3.8641895E2,7.059145E1,1.4919159E1,1.5052109E0,2.3427515E2,3.1672249E1,4.046743E1,5.495529E0,9.659637E0,0E0,1.3931885E0,0E0,0E0,0E0,0E0,0E0,0E0,0E0,0E0,0E0,0E0,0E0,0E0,0E0],"parents":[2147483647,0,0,1,1,2,2,3,3,4,4,5,5,6,6,7,7,8,8,9,9,10,10,11,11,13,13],"right_children":[2,4,6,8,10,12,14,16,18,20,22,24,-1,26,-1,-1,-1,-1,-1,-1,-1,-1,-1,-1,-1,-1,-1],"split_conditions":[4.45902E-2,4.45902E-2,1.1734808E-1,4.45902E-2,1.0625703E-1,2.678799E-1,3.2734644E-1,4.45902E-2,5.406344E-2,5.0962973E-2,3.1528056E-1,1.1016062E-1,-8.661445E-2,1.7232244E-1,3.0190272E-2,-7.8712404E-2,1.8590001E-2,1.30740525E-2,1.0185081E-1,1.1469291E-2,1.0567253E-1,1.3704465E-1,-5.6361772E-2,8.3169706E-2,1.2953989E-1,2.0411673E-1,6.524857E-2],"split_indices":[118,68,191,69,149,39,24,70,123,128,12,156,0,134,0,0,0,0,0,0,0,0,0,0,0,0,0],"split_type":[0,0,0,0,0,0,0,0,0,0,0,0,0,0,0,0,0,0,0,0,0,0,0,0,0,0,0],"sum_hessian":[5.375E3,5.03E3,3.45E2,4.261E3,7.69E2,3.25E2,2E1,3.748E3,5.13E2,7.12E2,5.7E1,3.21E2,4E0,1.9E1,1E0,3.482E3,2.66E2,4.7E2,4.3E1,6.64E2,4.8E1,5.6E1,1E0,2.62E2,5.9E1,1.7E1,2E0],"tree_param":{"num_deleted":"0","num_feature":"202","num_nodes":"27","size_leaf_vector":"0"}},{"base_weights":[-3.4290743E-1,-4.3454403E-1,8.012275E-1,-5.064848E-1,7.1750087E-1,6.944242E-1,1.2766478E0,-6.1894184E-1,5.832701E-2,6.3639456E-1,1.853645E0,5.896782E-1,1.072064E0,1.1382773E0,1.8736434E0,-7.3537296E-1,-4.9005203E-2,-2.3981656E-3,1.0488755E0,5.2450293E-1,1.1966295E0,1.9141508E0,3.8226974E-1,5.1880723E-1,1.1794286E0,1.2507011E0,7.004893E-1,1.1781774E0,-2.5848806E-2,2.0362015E0,7.072356E-1],"categories":[],"categories_nodes":[],"categories_segments":[],"categories_sizes":[],"default_left":[1,1,1,1,1,1,1,1,1,1,1,1,1,1,1,0,0,0,0,0,0,1,1,0,0,0,0,0,0,1,1],"id":4,"left_children":[1,3,5,7,9,11,13,15,17,19,-1,23,25,27,-1,-1,-1,-1,-1,-1,-1,-1,-1,-1,-1,-1,-1,-1,-1,-1,-1],"loss_changes":[5.6399286E2,4.1293536E2,1.937326E1,2.9767688E2,2.581984E1,1.2342285E1,3.8149338E0,2.5929236E2,4.686032E1,1.6610909E1,9.5977783E-1,1.0213318E1,3.7702866E0,2.8638306E0,8.3522797E-1,0E0,0E0,0E0,0E0,0E0,0E0,0E0,0E0,0E0,0E0,0E0,0E0,0E0,0E0,0E0,0E0],"parents":[2147483647,0,0,1,1,2,2,3,3,4,4,5,5,6,6,7,7,8,8,9,9,10,10,11,11,12,12,13,13,14,14],"right_children":[2,4,6,8,10,12,14,16,18,20,-1,24,26,28,-1,-1,-1,-1,-1,-1,-1,-1,-1,-1,-1,-1,-1,-1,-1,-1,-1],"split_conditions":[9.005575E-2,4.45902E-2,4.7405154E-2,4.073654E-2,1.1530482E-1,9.402482E-2,1.564968E-1,8.290256E-2,5.4025523E-2,1.1596018E-1,1.853645E-1,1.381962E-1,1.147957E-1,2.2295696E-1,1.8736434E-1,-7.35373E-2,-4.90052E-3,-2.3981657E-4,1.04887545E-1,5.2450296E-2,1.19662955E-1,1.9141509E-1,3.8226973E-2,5.1880725E-2,1.1794286E-1,1.2507011E-1,7.004893E-2,1.1781774E-1,-2.5848807E-3,2.0362015E-1,7.0723556E-2],"split_indices":[109,110,151,58,197,133,145,57,122,149,3,146,1,97,21,0,0,0,0,0,0,2147483647,2147483647,0,0,0,0,0,0,2147483647,2147483647],"split_type":[0,0,0,0,0,0,0,0,0,0,0,0,0,0,0,0,0,0,0,0,0,0,0,0,0,0,0,0,0,0,0],"sum_hessian":[5.375E3,4.977E3,3.98E2,4.685E3,2.92E2,3.27E2,7.1E1,3.907E3,7.78E2,2.74E2,1.8E1,2.58E2,6.9E1,6E1,1.1E1,3.244E3,6.63E2,7.34E2,4.4E1,2.3E2,4.4E1,1.7E1,1E0,2.32E2,2.6E1,4.5E1,2.4E1,5.8E1,2E0,9E0,2E0],"tree_param":{"num_deleted":"4","num_feature":"202","num_nodes":"31","size_leaf_vector":"0"}},{"base_weights":[-3.0842116E-1,-4.113906E-1,5.453886E-1,-4.999954E-1,4.6514252E-1,4.4432962E-1,1.1612287E0,-5.5982107E-1,4.6884006E-1,3.8230205E-1,9.471511E-1,3.5072502E-1,9.5277643E-1,1.1892455E0,-5.4006016E-1,-6.601403E-1,-1.10911734E-1,3.553817E-1,1.2178982E0,3.215177E-1,8.249613E-1,1.0383015E0,2.7475443E-1,2.7867153E-1,1.0734072E0,7.79199E-1,1.408512E0,1.0082967E0,1.5262817E0],"categories":[],"categories_nodes":[],"categories_segments":[],"categories_sizes":[],"default_left":[1,1,1,1,1,1,1,1,1,1,1,1,1,1,0,0,0,0,0,0,0,0,0,0,0,0,0,0,0],"id":5,"left_children":[1,3,5,7,9,11,13,15,17,19,21,23,25,27,-1,-1,-1,-1,-1,-1,-1,-1,-1,-1,-1,-1,-1,-1,-1],"loss_changes":[4.7286255E2,3.7286945E2,3.551877E1,2.5285742E2,1.7246948E1,2.3414719E1,4.503113E0,1.8479236E2,2.1153858E1,9.90551E0,3.63723E0,2.1727222E1,4.9936066E0,3.3399582E0,0E0,0E0,0E0,0E0,0E0,0E0,0E0,0E0,0E0,0E0,0E0,0E0,0E0,0E0,0E0],"parents":[2147483647,0,0,1,1,2,2,3,3,4,4,5,5,6,6,7,7,8,8,9,9,10,10,11,11,12,12,13,13],"right_children":[2,4,6,8,10,12,14,16,18,20,22,24,26,28,-1,-1,-1,-1,-1,-1,-1,-1,-1,-1,-1,-1,-1,-1,-1],"split_conditions":[4.45902E-2,4.45902E-2,1.0100323E-1,4.45902E-2,9.381286E-2,1.04384646E-1,2.4191536E-1,4.45902E-2,4.8347313E-2,1.1349647E-1,1.2115397E-1,9.381286E-2,1.4579979E-1,1.1468825E-1,-5.4006018E-2,-6.601403E-2,-1.1091174E-2,3.553817E-2,1.2178983E-1,3.215177E-2,8.249613E-2,1.0383015E-1,2.7475445E-2,2.7867153E-2,1.07340716E-1,7.79199E-2,1.408512E-1,1.00829676E-1,1.5262817E-1],"split_indices":[89,90,152,88,143,127,8,52,149,134,4,141,45,51,0,0,0,0,0,0,0,0,0,0,0,0,0,0,0],"split_type":[0,0,0,0,0,0,0,0,0,0,0,0,0,0,0,0,0,0,0,0,0,0,0,0,0,0,0,0,0],"sum_hessian":[5.375E3,4.797E3,5.78E2,4.357E3,4.4E2,4.98E2,8E1,4.104E3,2.53E2,3.77E2,6.3E1,4.22E2,7.6E1,7.9E1,1E0,3.354E3,7.5E2,2.21E2,3.2E1,3.33E2,4.4E1,5.5E1,8E0,3.85E2,3.7E1,5.7E1,1.9E1,5.4E1,2.5E1],"tree_param":{"num_deleted":"0","num_feature":"202","num_nodes":"29","size_leaf_vector":"0"}},{"base_weights":[-2.7741542E-1,-3.653925E-1,5.7004267E-1,-4.310649E-1,5.6064177E-1,4.8509085E-1,1.1389449E0,-5.243305E-1,5.7572957E-2,4.8510522E-1,1.3096982E0,4.2324758E-1,1.150585E0,1.1704755E0,9.71541E-2,-6.1450356E-1,5.4247674E-2,1.9301046E-3,9.925972E-1,4.093097E-1,1.0744725E0,1.406983E0,3.4992278E-1,3.87107E-1,1.0673912E0,1.2447805E0,-3.3189055E-1,1.2692606E0,7.697454E-1],"categories":[],"categories_nodes":[],"categories_segments":[],"categories_sizes":[],"default_left":[1,1,1,1,1,1,1,1,1,1,1,1,1,1,0,0,0,0,0,0,0,0,0,0,0,0,0,0,0],"id":6,"left_children":[1,3,5,7,9,11,13,15,17,19,21,23,25,27,-1,-1,-1,-1,-1,-1,-1,-1,-1,-1,-1,-1,-1,-1,-1],"loss_changes":[4.0102615E2,2.964709E2,2.39021E1,2.0734216E2,1.7640358E1,1.7704124E1,2.021431E0,1.9933105E2,3.7978096E1,1.2738266E1,2.2154388E0,9.038368E0,5.5799065E0,1.516922E0,0E0,0E0,0E0,0E0,0E0,0E0,0E0,0E0,0E0,0E0,0E0,0E0,0E0,0E0,0E0],"parents":[2147483647,0,0,1,1,2,2,3,3,4,4,5,5,6,6,7,7,8,8,9,9,10,10,11,11,12,12,13,13],"right_children":[2,4,6,8,10,12,14,16,18,20,22,24,26,28,-1,-1,-1,-1,-1,-1,-1,-1,-1,-1,-1,-1,-1,-1,-1],"split_conditions":[4.45902E-2,4.5465548E-2,1.04384646E-1,4.073654E-2,1.11137114E-1,1.1555697E-1,1.9038865E-1,4.45902E-2,4.5465548E-2,9.9620305E-2,2.2800273E-1,9.975096E-2,5.5355806E-2,1.3170494E-1,9.715411E-3,-6.145036E-2,5.4247673E-3,1.9301046E-4,9.925973E-2,4.0930968E-2,1.0744726E-1,1.406983E-1,3.4992278E-2,3.8710702E-2,1.0673912E-1,1.2447806E-1,-3.3189055E-2,1.2692606E-1,7.697454E-2],"split_indices":[99,100,154,58,180,164,47,59,118,155,7,170,177,147,0,0,0,0,0,0,0,0,0,0,0,0,0,0,0],"split_type":[0,0,0,0,0,0,0,0,0,0,0,0,0,0,0,0,0,0,0,0,0,0,0,0,0,0,0,0,0],"sum_hessian":[5.375E3,4.87E3,5.05E2,4.548E3,3.22E2,4.41E2,6.4E1,3.819E3,7.29E2,2.94E2,2.8E1,4.05E2,3.6E1,6.2E1,2E0,3.304E3,5.15E2,6.89E2,4E1,2.62E2,3.2E1,2.5E1,3E0,3.85E2,2E1,3.4E1,2E0,4.8E1,1.4E1],"tree_param":{"num_deleted":"0","num_feature":"202","num_nodes":"29","size_leaf_vector":"0"}},{"base_weights":[-2.4952176E-1,-3.4016225E-1,4.56608E-1,-4.1948426E-1,4.1213968E-1,3.6589465E-1,1.0467672E0,-5.1355517E-1,5.4351505E-2,3.2830578E-1,1.0555389E0,2.8130096E-1,8.6211306E-1,-2.042721E-1,1.0810249E0,-5.9985274E-1,-9.696835E-3,-6.973305E-3,9.066561E-1,2.466593E-1,8.643671E-1,1.1403065E0,3.0662846E-2,3.6558434E-1,6.336186E-3,9.5449185E-1,5.8085695E-2,-4.057792E-1,9.9371046E-2,1.1065736E0,-4.5588693E-1],"categories":[],"categories_nodes":[],"categories_segments":[],"categories_sizes":[],"default_left":[1,1,1,1,1,1,1,1,1,1,1,1,1,1,1,0,0,0,0,0,0,0,0,0,0,0,0,1,1,0,0],"id":7,"left_children":[1,3,5,7,9,11,13,15,17,19,21,23,25,-1,29,-1,-1,-1,-1,-1,-1,-1,-1,-1,-1,-1,-1,-1,-1,-1,-1],"loss_changes":[3.4424048E2,2.8451996E2,3.2380615E1,1.9218713E2,2.4195557E1,2.2089226E1,3.6922836E0,1.5639807E2,3.737752E1,1.7468876E1,4.4825974E0,1.0565464E1,5.6637306E0,2.2388145E-1,3.6064987E0,0E0,0E0,0E0,0E0,0E0,0E0,0E0,0E0,0E0,0E0,0E0,0E0,0E0,0E0,0E0,0E0],"parents":[2147483647,0,0,1,1,2,2,3,3,4,4,5,5,6,6,7,7,8,8,9,9,10,10,11,11,12,12,13,13,14,14],"right_children":[2,4,6,8,10,12,14,16,18,20,22,24,26,-1,30,-1,-1,-1,-1,-1,-1,-1,-1,-1,-1,-1,-1,-1,-1,-1,-1],"split_conditions":[8.5326746E-2,9.005575E-2,1.1425334E-1,9.690659E-2,5.115167E-2,4.8347313E-2,1.0887088E-1,4.073654E-2,4.653215E-2,1.1678333E-1,1.7495686E-1,1.1874774E-1,1.5634364E-1,-2.042721E-2,2.3704708E-1,-5.9985276E-2,-9.6968346E-4,-6.973305E-4,9.066561E-2,2.466593E-2,8.643671E-2,1.1403065E-1,3.0662846E-3,3.6558434E-2,6.336186E-4,9.544919E-2,5.8085695E-3,-4.0577922E-2,9.937105E-3,1.1065736E-1,-4.5588695E-2],"split_indices":[86,87,132,55,160,140,86,56,111,129,123,2,148,4,130,0,0,0,0,0,0,0,0,0,0,0,0,2147483647,2147483647,0,0],"split_type":[0,0,0,0,0,0,0,0,0,0,0,0,0,0,0,0,0,0,0,0,0,0,0,0,0,0,0,0,0,0,0],"sum_hessian":[5.375E3,4.764E3,6.11E2,4.31E3,4.54E2,5.31E2,8E1,3.596E3,7.14E2,4.03E2,5.1E1,4.55E2,7.6E1,2E0,7.8E1,3.07E3,5.26E2,6.67E2,4.7E1,3.51E2,5.2E1,4.7E1,4E0,3.48E2,1.07E2,6.8E1,8E0,1E0,1E0,7.7E1,1E0],"tree_param":{"num_deleted":"2","num_feature":"202","num_nodes":"31","size_leaf_vector":"0"}},{"base_weights":[-2.2448768E-1,-2.9472327E-1,5.6215054E-1,-3.6278492E-1,3.5583702E-1,4.9066374E-1,1.0448605E0,-4.697344E-1,9.651291E-3,2.89763E-1,1.0752215E0,4.333582E-1,9.1528237E-1,1.1117245E0,-1.0230252E-1,-5.9092665E-1,-3.5029072E-2,-2.8455712E-2,9.731034E-1,2.387487E-1,1.0423561E0,9.149898E-1,1.8039976E0,3.614115E-1,7.723326E-1,9.896428E-1,1.2247028E-1,1.1923785E0,4.1137245E-1,-5.327293E-1,2.1874952E-1],"categories":[],"categories_nodes":[],"categories_segments":[],"categories_sizes":[],"default_left":[1,1,1,1,1,1,1,1,1,1,1,1,1,1,1,0,0,0,0,0,0,0,0,0,0,0,0,0,0,1,1],"id":8,"left_children":[1,3,5,7,9,11,13,15,17,19,21,23,25,27,-1,-1,-1,-1,-1,-1,-1,-1,-1,-1,-1,-1,-1,-1,-1,-1,-1],"loss_changes":[2.9718976E2,2.1868631E2,1.4705093E1,1.7801312E2,2.1933708E1,8.995903E0,4.4091454E0,1.8289441E2,3.6668537E1,1.6260136E1,2.9035072E0,8.061592E0,2.5317192E0,2.5032578E0,6.69292E-1,0E0,0E0,0E0,0E0,0E0,0E0,0E0,0E0,0E0,0E0,0E0,0E0,0E0,0E0,0E0,0E0],"parents":[2147483647,0,0,1,1,2,2,3,3,4,4,5,5,6,6,7,7,8,8,9,9,10,10,11,11,12,12,13,13,14,14],"right_children":[2,4,6,8,10,12,14,16,18,20,22,24,26,28,-1,-1,-1,-1,-1,-1,-1,-1,-1,-1,-1,-1,-1,-1,-1,-1,-1],"split_conditions":[4.5465548E-2,4.073654E-2,4.5465548E-2,4.14413E-2,1.021279E-1,1.1096024E-1,2.5298733E-1,4.45902E-2,4.8347313E-2,1.4570886E-1,6.0668156E-2,1.0738559E-1,2.3897284E-1,1.4068083E-1,-1.02302525E-2,-5.9092667E-2,-3.5029072E-3,-2.8455711E-3,9.731034E-2,2.387487E-2,1.0423561E-1,9.1498986E-2,1.8039976E-1,3.6141153E-2,7.723326E-2,9.896428E-2,1.2247029E-2,1.19237855E-1,4.1137245E-2,-5.3272933E-2,2.1874953E-2],"split_indices":[103,84,172,48,156,154,166,47,129,128,200,125,17,92,1,0,0,0,0,0,0,0,0,0,0,0,0,0,0,2147483647,2147483647],"split_type":[0,0,0,0,0,0,0,0,0,0,0,0,0,0,0,0,0,0,0,0,0,0,0,0,0,0,0,0,0,0,0],"sum_hessian":[5.375E3,4.935E3,4.4E2,4.468E3,4.67E2,3.85E2,5.5E1,3.471E3,9.97E2,4.29E2,3.8E1,3.41E2,4.4E1,5.2E1,3E0,2.714E3,7.57E2,9.6E2,3.7E1,4.03E2,2.6E1,3.3E1,5E0,2.83E2,5.8E1,4E1,4E0,4.6E1,6E0,1E0,2E0],"tree_param":{"num_deleted":"2","num_feature":"202","num_nodes":"31","size_leaf_vector":"0"}},{"base_weights":[-2.0188887E-1,-2.8484038E-1,3.8217333E-1,-3.556688E-1,3.500731E-1,3.3494616E-1,1.0973859E0,-4.2310375E-1,1.3130997E-1,2.9383132E-1,1.2334217E0,2.6970586E-1,7.0339155E-1,1.2450105E0,5.815905E-1,-5.148209E-1,-9.901269E-2,6.7284584E-2,1.0092793E0,2.6310593E-1,1.3831406E0,1.3071809E0,1.8303418E-1,2.211135E-1,6.9934285E-1,7.772404E-1,1.8346861E-1,1.3744498E0,7.0106626E-1,1.0612359E0,1.5590219E-1],"categories":[],"categories_nodes":[],"categories_segments":[],"categories_sizes":[],"default_left":[1,1,1,1,1,1,1,1,1,1,1,1,1,1,1,0,0,0,0,0,0,0,0,0,0,0,0,0,0,0,0],"id":9,"left_children":[1,3,5,7,9,11,13,15,17,19,21,23,25,27,29,-1,-1,-1,-1,-1,-1,-1,-1,-1,-1,-1,-1,-1,-1,-1,-1],"loss_changes":[2.6056982E2,2.1184296E2,2.222956E1,1.3916321E2,2.3136742E1,1.4929878E1,2.3978233E0,1.1055469E2,2.8937654E1,1.45634575E1,1.9300613E0,1.1035473E1,3.4665947E0,1.219059E0,2.080525E0,0E0,0E0,0E0,0E0,0E0,0E0,0E0,0E0,0E0,0E0,0E0,0E0,0E0,0E0,0E0,0E0],"parents":[2147483647,0,0,1,1,2,2,3,3,4,4,5,5,6,6,7,7,8,8,9,9,10,10,11,11,12,12,13,13,14,14],"right_children":[2,4,6,8,10,12,14,16,18,20,22,24,26,28,30,-1,-1,-1,-1,-1,-1,-1,-1,-1,-1,-1,-1,-1,-1,-1,-1],"split_conditions":[9.005575E-2,4.073654E-2,4.5465548E-2,9.005575E-2,1.1182071E-1,1.1304337E-1,1.24816E-1,4.45902E-2,4.8347313E-2,1.2794118E-1,1.5631557E-1,4.8559275E-2,1.6323741E-1,1.315116E-1,5.9645437E-2,-5.148209E-2,-9.901269E-3,6.7284587E-3,1.0092793E-1,2.6310593E-2,1.3831405E-1,1.307181E-1,1.8303419E-2,2.211135E-2,6.9934286E-2,7.772404E-2,1.8346861E-2,1.3744499E-1,7.0106626E-2,1.0612359E-1,1.559022E-2],"split_indices":[83,84,181,63,171,134,26,43,133,196,172,141,2,69,132,0,0,0,0,0,0,0,0,0,0,0,0,0,0,0,0],"split_type":[0,0,0,0,0,0,0,0,0,0,0,0,0,0,0,0,0,0,0,0,0,0,0,0,0,0,0,0,0,0,0],"sum_hessian":[5.375E3,4.707E3,6.68E2,4.235E3,4.72E2,6.28E2,4E1,3.72E3,5.15E2,4.45E2,2.7E1,5.35E2,9.3E1,3E1,1E1,2.899E3,8.21E2,4.81E2,3.4E1,4.34E2,1.1E1,2.5E1,2E0,4.82E2,5.3E1,8.1E1,1.2E1,2.3E1,7E0,4E0,6E0],"tree_param":{"num_deleted":"0","num_feature":"202","num_nodes":"31","size_leaf_vector":"0"}},{"base_weights":[-1.815368E-1,-2.3930353E-1,5.3962696E-1,-3.166198E-1,1.7595954E-1,6.2834436E-1,2.6072603E-1,-3.9268902E-1,1.3392575E-1,1.15235135E-1,8.222687E-1,5.4773855E-1,1.0434723E0,1.5068488E-1,6.8235236E-1,-4.4952378E-1,1.2342619E-1,8.44059E-2,7.6563644E-1,8.4424935E-2,7.933178E-1,6.7825496E-1,1.4258107E0,4.7724056E-1,9.7723323E-1,1.0982171E0,3.5302266E-1,4.925368E-2,5.8017445E-1,7.7230585E-1,-8.481947E-2],"categories":[],"categories_nodes":[],"categories_segments":[],"categories_sizes":[],"default_left":[1,1,1,1,1,1,1,1,1,1,1,1,1,1,1,0,0,0,0,0,0,0,0,0,0,0,0,0,0,0,0],"id":10,"left_children":[1,3,5,7,9,11,13,15,17,19,21,23,25,27,29,-1,-1,-1,-1,-1,-1,-1,-1,-1,-1,-1,-1,-1,-1,-1,-1],"loss_changes":[2.2408937E2,1.5988235E2,9.708771E0,1.4389487E2,3.0596195E1,9.53389E0,4.4440126E0,1.053913E2,1.8923687E1,1.4891598E1,4.856468E0,7.2546387E0,1.4266357E0,3.412952E0,1.4457026E0,0E0,0E0,0E0,0E0,0E0,0E0,0E0,0E0,0E0,0E0,0E0,0E0,0E0,0E0,0E0,0E0],"parents":[2147483647,0,0,1,1,2,2,3,3,4,4,5,5,6,6,7,7,8,8,9,9,10,10,11,11,12,12,13,13,14,14],"right_children":[2,4,6,8,10,12,14,16,18,20,22,24,26,28,30,-1,-1,-1,-1,-1,-1,-1,-1,-1,-1,-1,-1,-1,-1,-1,-1],"split_conditions":[9.005575E-2,9.381286E-2,1.1381164E-1,9.005575E-2,4.8347313E-2,4.5465548E-2,1.3028547E-1,4.2166017E-2,4.8347313E-2,1.1644858E-1,5.1680323E-2,1.5594128E-1,1.30092E-1,1.7283244E-1,1.6132309E-1,-4.4952378E-2,1.234262E-2,8.44059E-3,7.656365E-2,8.442494E-3,7.933178E-2,6.7825496E-2,1.4258108E-1,4.7724057E-2,9.772333E-2,1.09821714E-1,3.5302266E-2,4.925368E-3,5.8017444E-2,7.723059E-2,-8.481948E-3],"split_indices":[109,64,4,63,134,162,23,62,143,135,179,115,115,42,70,0,0,0,0,0,0,0,0,0,0,0,0,0,0,0,0],"split_type":[0,0,0,0,0,0,0,0,0,0,0,0,0,0,0,0,0,0,0,0,0,0,0,0,0,0,0,0,0,0,0],"sum_hessian":[5.375E3,4.977E3,3.98E2,4.196E3,7.81E2,3.01E2,9.7E1,3.59E3,6.06E2,7.15E2,6.6E1,2.54E2,4.7E1,7.8E1,1.9E1,3.234E3,3.56E2,5.63E2,4.3E1,6.85E2,3E1,5.5E1,1.1E1,2.2E2,3.4E1,4.3E1,4E0,6.4E1,1.4E1,1.7E1,2E0],"tree_param":{"num_deleted":"0","num_feature":"202","num_nodes":"31","size_leaf_vector":"0"}},{"base_weights":[-1.6323936E-1,-2.12919E-1,5.595972E-1,-2.85617E-1,1.8974571E-1,5.7832223E-1,-8.331152E-1,-3.4467357E-1,1.4568397E-1,1.456538E-1,9.907817E-1,5.396029E-1,1.2081518E0,-4.2905676E-1,-3.4067176E-2,1.11370146E-1,9.876671E-1,1.0746613E-1,6.9911975E-1,1.1412991E0,5.444662E-1,5.0540745E-1,9.860394E-1,1.2654709E0,8.8204384E-2],"categories":[],"categories_nodes":[],"categories_segments":[],"categories_sizes":[],"default_left":[1,1,1,1,1,1,0,1,1,1,1,1,1,0,0,0,0,0,0,0,0,0,0,0,0],"id":11,"left_children":[1,3,5,7,9,11,-1,13,15,17,19,21,23,-1,-1,-1,-1,-1,-1,-1,-1,-1,-1,-1,-1],"loss_changes":[1.9317267E2,1.4732628E2,9.505005E0,1.0860828E2,2.7051477E1,7.6883087E0,0E0,9.824655E1,1.4740319E1,1.5374975E1,2.0657272E0,4.4478607E0,1.1080723E0,0E0,0E0,0E0,0E0,0E0,0E0,0E0,0E0,0E0,0E0,0E0,0E0],"parents":[2147483647,0,0,1,1,2,2,3,3,4,4,5,5,7,7,8,8,9,9,10,10,11,11,12,12],"right_children":[2,4,6,8,10,12,-1,14,16,18,20,22,24,-1,-1,-1,-1,-1,-1,-1,-1,-1,-1,-1,-1],"split_conditions":[4.45902E-2,4.45902E-2,2.678799E-1,4.45902E-2,1.3634863E-1,1.3050053E-1,-8.331152E-2,4.45902E-2,4.8347313E-2,4.45902E-2,1.325211E-1,1.6797677E-1,3.2734644E-1,-4.2905677E-2,-3.4067177E-3,1.1137015E-2,9.876671E-2,1.0746613E-2,6.991198E-2,1.14129916E-1,5.444662E-2,5.0540745E-2,9.860394E-2,1.2654708E-1,8.820439E-3],"split_indices":[118,68,39,69,140,191,0,45,168,123,83,155,24,0,0,0,0,0,0,0,0,0,0,0,0],"split_type":[0,0,0,0,0,0,0,0,0,0,0,0,0,0,0,0,0,0,0,0,0,0,0,0,0],"sum_hessian":[5.375E3,5.03E3,3.45E2,4.261E3,7.69E2,3.41E2,4E0,3.748E3,5.13E2,7.3E2,3.9E1,3.23E2,1.8E1,2.947E3,8.01E2,4.94E2,1.9E1,6.84E2,4.6E1,2.8E1,1.1E1,3.02E2,2.1E1,1.7E1,1E0],"tree_param":{"num_deleted":"0","num_feature":"202","num_nodes":"25","size_leaf_vector":"0"}},{"base_weights":[-1.468198E-1,-1.900998E-1,5.3307825E-1,-2.8126845E-1,9.394622E-2,4.94438E-1,1.0918247E0,-3.772642E-1,5.2856274E-2,5.0961893E-2,6.8682665E-1,4.5082563E-1,1.030995E0,1.1811613E0,1.9186276E-1,-4.6624374E-1,7.679392E-2,3.0955972E-2,6.7556983E-1,2.3732448E-2,6.356627E-1,8.1668985E-1,2.369231E-1,3.7206924E-1,6.4503455E-1,1.1283318E0,3.108961E-1,1.2899283E0,4.7799486E-1],"categories":[],"categories_nodes":[],"categories_segments":[],"categories_sizes":[],"default_left":[1,1,1,1,1,1,1,1,1,1,1,1,1,1,0,0,0,0,0,0,0,0,0,0,0,0,0,1,1],"id":12,"left_children":[1,3,5,7,9,11,13,15,17,19,21,23,25,-1,-1,-1,-1,-1,-1,-1,-1,-1,-1,-1,-1,-1,-1,-1,-1],"loss_changes":[1.5829543E2,1.3093118E2,6.412178E0,1.2276926E2,3.1285528E1,6.625557E0,1.3813705E0,1.2015054E2,1.1639248E1,1.824639E1,4.655857E0,4.073242E0,1.1912346E0,7.6008224E-1,0E0,0E0,0E0,0E0,0E0,0E0,0E0,0E0,0E0,0E0,0E0,0E0,0E0,0E0,0E0],"parents":[2147483647,0,0,1,1,2,2,3,3,4,4,5,5,6,6,7,7,8,8,9,9,10,10,11,11,12,12,13,13],"right_children":[2,4,6,8,10,12,14,16,18,20,22,24,26,-1,-1,-1,-1,-1,-1,-1,-1,-1,-1,-1,-1,-1,-1,-1,-1],"split_conditions":[4.45902E-2,4.073654E-2,9.965133E-2,8.5326746E-2,4.8559275E-2,1.7102249E-1,2.0329276E-1,4.45902E-2,4.5465548E-2,4.45902E-2,1.4060304E-1,1.2798649E-1,6.636948E-2,1.1811613E-1,1.9186277E-2,-4.6624374E-2,7.6793917E-3,3.0955973E-3,6.7556985E-2,2.3732448E-3,6.356627E-2,8.166899E-2,2.369231E-2,3.7206925E-2,6.450345E-2,1.1283318E-1,3.108961E-2,1.2899284E-1,4.7799487E-2],"split_indices":[120,48,191,49,124,139,181,50,146,123,25,16,189,104,0,0,0,0,0,0,0,0,0,0,0,0,0,2147483647,2147483647],"split_type":[0,0,0,0,0,0,0,0,0,0,0,0,0,0,0,0,0,0,0,0,0,0,0,0,0,0,0,0,0],"sum_hessian":[5.375E3,5.054E3,3.21E2,3.826E3,1.228E3,3.02E2,1.9E1,2.972E3,8.54E2,1.146E3,8.2E1,2.81E2,2.1E1,1.7E1,2E0,2.485E3,4.87E2,8.26E2,2.8E1,1.096E3,5E1,6.3E1,1.9E1,2.02E2,7.9E1,1.8E1,3E0,1.4E1,3E0],"tree_param":{"num_deleted":"2","num_feature":"202","num_nodes":"29","size_leaf_vector":"0"}},{"base_weights":[-1.3202883E-1,-1.8765259E-1,3.2913655E-1,-2.3402953E-1,2.9381552E-1,2.681798E-1,7.172284E-1,-3.1140238E-1,2.027318E-2,2.4324092E-1,9.967854E-1,2.2867848E-1,7.0675117E-1,7.5640553E-1,-5.143351E-1,-4.1012377E-1,-1.3804725E-2,-5.6550214E-3,7.305749E-1,2.0523375E-1,6.679712E-1,1.0681137E0,-4.6453908E-1,2.402206E-1,-1.1529495E0,7.65302E-1,-2.6169568E-2,8.5630417E-1,2.0641175E-1],"categories":[],"categories_nodes":[],"categories_segments":[],"categories_sizes":[],"default_left":[1,1,1,1,1,1,1,1,1,1,1,1,1,1,0,0,0,0,0,0,0,0,0,0,0,0,0,0,0],"id":13,"left_children":[1,3,5,7,9,11,13,15,17,19,21,23,25,27,-1,-1,-1,-1,-1,-1,-1,-1,-1,-1,-1,-1,-1,-1,-1],"loss_changes":[1.3796558E2,1.07203384E2,1.35049515E1,8.612874E1,1.4760662E1,8.535103E0,4.1524773E0,9.8591095E1,1.8826149E1,6.239315E0,3.4147263E0,7.644436E0,1.7794647E0,3.9989624E0,0E0,0E0,0E0,0E0,0E0,0E0,0E0,0E0,0E0,0E0,0E0,0E0,0E0,0E0,0E0],"parents":[2147483647,0,0,1,1,2,2,3,3,4,4,5,5,6,6,7,7,8,8,9,9,10,10,11,11,12,12,13,13],"right_children":[2,4,6,8,10,12,14,16,18,20,22,24,26,28,-1,-1,-1,-1,-1,-1,-1,-1,-1,-1,-1,-1,-1,-1,-1],"split_conditions":[4.45902E-2,8.6202085E-2,4.5465548E-2,4.073654E-2,1.1304337E-1,4.5465548E-2,3.1175524E-1,4.45902E-2,4.5465548E-2,1.195043E-1,1.8552014E-1,3.2687122E-1,1.9925621E-1,1.3823366E-1,-5.143351E-2,-4.1012377E-2,-1.3804726E-3,-5.6550215E-4,7.3057495E-2,2.0523375E-2,6.679712E-2,1.0681137E-1,-4.6453908E-2,2.4022061E-2,-1.1529495E-1,7.65302E-2,-2.6169568E-3,8.563042E-2,2.0641176E-2],"split_indices":[89,84,147,44,171,151,15,43,138,147,162,82,122,116,0,0,0,0,0,0,0,0,0,0,0,0,0,0,0],"split_type":[0,0,0,0,0,0,0,0,0,0,0,0,0,0,0,0,0,0,0,0,0,0,0,0,0,0,0,0,0],"sum_hessian":[5.375E3,4.797E3,5.78E2,4.376E3,4.21E2,5.01E2,7.7E1,3.355E3,1.021E3,3.94E2,2.7E1,4.61E2,4E1,7.5E1,2E0,2.519E3,8.36E2,9.86E2,3.5E1,3.63E2,3.1E1,2.6E1,1E0,4.58E2,3E0,3.7E1,3E0,6.3E1,1.2E1],"tree_param":{"num_deleted":"0","num_feature":"202","num_nodes":"29","size_leaf_vector":"0"}},{"base_weights":[-1.1878592E-1,-1.7551376E-1,2.8060645E-1,-2.2490829E-1,2.3878558E-1,2.4531035E-1,8.152561E-1,-2.7769834E-1,1.1586884E-1,1.5909894E-1,6.699143E-1,2.0577778E-1,5.631721E-1,9.4790804E-1,3.6730474E-1,-3.5589373E-1,-6.365839E-2,6.0321175E-2,6.9958866E-1,1.1148294E-1,6.146159E-1,1.7371319E-1,7.487874E-1,1.5817001E-1,4.0174606E-1,7.097761E-1,1.08362064E-1,1.058686E0,4.9708575E-1,7.6382214E-1,3.160594E-2],"categories":[],"categories_nodes":[],"categories_segments":[],"categories_sizes":[],"default_left":[1,1,1,1,1,1,1,1,1,1,1,1,1,1,1,0,0,0,0,0,0,0,0,0,0,0,0,0,0,0,0],"id":14,"left_children":[1,3,5,7,9,11,13,15,17,19,21,23,25,27,29,-1,-1,-1,-1,-1,-1,-1,-1,-1,-1,-1,-1,-1,-1,-1,-1],"loss_changes":[1.218515E2,9.639879E1,1.2424736E1,7.57146E1,1.7139727E1,7.788059E0,2.0881157E0,6.0950012E1,1.8277515E1,9.149689E0,2.9226036E0,5.17037E0,4.5238E0,1.0219173E0,1.4400733E0,0E0,0E0,0E0,0E0,0E0,0E0,0E0,0E0,0E0,0E0,0E0,0E0,0E0,0E0,0E0,0E0],"parents":[2147483647,0,0,1,1,2,2,3,3,4,4,5,5,6,6,7,7,8,8,9,9,10,10,11,11,12,12,13,13,14,14],"right_children":[2,4,6,8,10,12,14,16,18,20,22,24,26,28,30,-1,-1,-1,-1,-1,-1,-1,-1,-1,-1,-1,-1,-1,-1,-1,-1],"split_conditions":[9.005575E-2,4.45902E-2,4.5465548E-2,4.45902E-2,4.5465548E-2,4.45902E-2,1.24816E-1,4.45902E-2,1.1095772E-1,1.2443106E-1,1.13747105E-1,9.005575E-2,1.246486E-1,1.315116E-1,5.9645437E-2,-3.5589375E-2,-6.365839E-3,6.0321176E-3,6.9958866E-2,1.1148294E-2,6.1461594E-2,1.737132E-2,7.4878745E-2,1.5817001E-2,4.0174607E-2,7.097761E-2,1.0836206E-2,1.058686E-1,4.9708575E-2,7.638221E-2,3.160594E-3],"split_indices":[83,82,181,60,135,150,26,38,113,124,82,109,70,69,132,0,0,0,0,0,0,0,0,0,0,0,0,0,0,0,0],"split_type":[0,0,0,0,0,0,0,0,0,0,0,0,0,0,0,0,0,0,0,0,0,0,0,0,0,0,0,0,0,0,0],"sum_hessian":[5.375E3,4.707E3,6.68E2,4.206E3,5.01E2,6.28E2,4E1,3.642E3,5.64E2,4.24E2,7.7E1,5.6E2,6.8E1,3E1,1E1,2.667E3,9.75E2,5.16E2,4.8E1,3.85E2,3.9E1,1.1E1,6.6E1,4.52E2,1.08E2,5.1E1,1.7E1,2.3E1,7E0,4E0,6E0],"tree_param":{"num_deleted":"0","num_feature":"202","num_nodes":"31","size_leaf_vector":"0"}},{"base_weights":[-1.0680096E-1,-1.461519E-1,3.8441655E-1,-2.1057874E-1,1.106699E-1,4.581746E-1,1.5319885E-1,-2.808486E-1,1.0317733E-1,8.534135E-2,7.4897003E-1,4.1161233E-1,9.8037016E-1,1.9475093E-1,-6.586201E-1,-3.5353732E-1,-1.043987E-2,4.6289943E-2,4.5643467E-1,5.4625213E-2,3.8978764E-1,9.197887E-1,2.4607055E-1,3.1113577E-1,6.576585E-1,1.0575881E0,3.2988346E-1,1.0512937E-1,5.2109426E-1,-1.03779756E-1,-9.9392045E-1],"categories":[],"categories_nodes":[],"categories_segments":[],"categories_sizes":[],"default_left":[1,1,1,1,1,1,1,1,1,1,1,1,1,1,1,0,0,0,0,0,0,0,0,0,0,1,1,0,0,1,1],"id":15,"left_children":[1,3,5,7,9,11,13,15,17,19,21,23,-1,27,-1,-1,-1,-1,-1,-1,-1,-1,-1,-1,-1,-1,-1,-1,-1,-1,-1],"loss_changes":[1.0397357E2,8.239036E1,6.734421E0,8.777843E1,1.6087135E1,6.939476E0,3.4340787E0,6.3916504E1,1.4628773E1,8.974767E0,3.038046E0,6.6927795E0,8.566227E-1,2.6944728E0,8.2704186E-1,0E0,0E0,0E0,0E0,0E0,0E0,0E0,0E0,0E0,0E0,0E0,0E0,0E0,0E0,0E0,0E0],"parents":[2147483647,0,0,1,1,2,2,3,3,4,4,5,5,6,6,7,7,8,8,9,9,10,10,11,11,12,12,13,13,14,14],"right_children":[2,4,6,8,10,12,14,16,18,20,22,24,-1,28,-1,-1,-1,-1,-1,-1,-1,-1,-1,-1,-1,-1,-1,-1,-1,-1,-1],"split_conditions":[9.005575E-2,8.5326746E-2,1.1381164E-1,9.381286E-2,1.066875E-1,1.564968E-1,2.505937E-1,4.45902E-2,1.2767187E-1,1.0950404E-1,1.3550375E-1,1.3272446E-1,9.803702E-2,1.3028547E-1,-6.5862015E-2,-3.535373E-2,-1.043987E-3,4.6289945E-3,4.5643467E-2,5.462521E-3,3.8978767E-2,9.197887E-2,2.4607055E-2,3.1113578E-2,6.576585E-2,1.0575881E-1,3.2988347E-2,1.0512937E-2,5.2109428E-2,-1.0377976E-2,-9.939205E-2],"split_indices":[109,54,4,55,152,145,66,42,81,103,118,34,141,23,25,0,0,0,0,0,0,0,0,0,0,2147483647,2147483647,0,0,2147483647,2147483647],"split_type":[0,0,0,0,0,0,0,0,0,0,0,0,0,0,0,0,0,0,0,0,0,0,0,0,0,0,0,0,0,0,0],"sum_hessian":[5.375E3,4.977E3,3.98E2,3.979E3,9.98E2,3.01E2,9.7E1,3.251E3,7.28E2,9.61E2,3.7E1,2.78E2,2.3E1,9.3E1,4E0,2.562E3,6.89E2,6.28E2,1E2,8.74E2,8.7E1,2.7E1,1E1,1.99E2,7.9E1,2E1,3E0,7.4E1,1.9E1,2E0,2E0],"tree_param":{"num_deleted":"4","num_feature":"202","num_nodes":"31","size_leaf_vector":"0"}},{"base_weights":[-9.6052684E-2,-1.3640806E-1,3.2547903E-1,-2.0398916E-1,8.035055E-2,2.9081053E-1,9.5761836E-1,-2.818293E-1,7.234052E-2,4.98179E-2,7.474998E-1,2.594509E-1,8.576378E-1,1.2376852E0,1.0064367E-1,-3.475246E-1,7.102043E-2,4.6892125E-2,5.3287196E-1,3.131677E-2,5.2261317E-1,8.2732594E-1,2.1501864E-1,1.9887248E-1,5.222518E-1,9.498284E-1,1.8227549E-1,3.854387E-1,-4.075626E-1],"categories":[],"categories_nodes":[],"categories_segments":[],"categories_sizes":[],"default_left":[1,1,1,1,1,1,1,1,1,1,1,1,1,0,1,0,0,0,0,0,0,0,0,0,0,0,0,0,0],"id":16,"left_children":[1,3,5,7,9,11,13,15,17,19,21,23,25,-1,27,-1,-1,-1,-1,-1,-1,-1,-1,-1,-1,-1,-1,-1,-1],"loss_changes":[9.149594E1,7.189796E1,1.0021713E1,8.0487595E1,2.3734356E1,7.7231293E0,5.635681E0,6.768878E1,9.620396E0,9.754311E0,1.9899101E0,6.6621704E0,1.2588978E0,0E0,1.1702328E0,0E0,0E0,0E0,0E0,0E0,0E0,0E0,0E0,0E0,0E0,0E0,0E0,0E0,0E0],"parents":[2147483647,0,0,1,1,2,2,3,3,4,4,5,5,6,6,7,7,8,8,9,9,10,10,11,11,12,12,14,14],"right_children":[2,4,6,8,10,12,14,16,18,20,22,24,26,-1,28,-1,-1,-1,-1,-1,-1,-1,-1,-1,-1,-1,-1,-1,-1],"split_conditions":[4.363639E-2,4.073654E-2,4.5465548E-2,8.5326746E-2,1.1192031E-1,2.084751E-1,1.3096505E-1,4.45902E-2,4.8951283E-2,1.1042218E-1,1.949658E-1,1.19586594E-1,1.8051127E-1,1.2376852E-1,1.4387956E-1,-3.4752462E-2,7.1020434E-3,4.6892124E-3,5.3287197E-2,3.131677E-3,5.226132E-2,8.2732596E-2,2.1501865E-2,1.9887248E-2,5.222518E-2,9.498284E-2,1.822755E-2,3.8543873E-2,-4.0756263E-2],"split_indices":[97,48,194,49,154,38,33,50,140,125,17,125,58,0,56,0,0,0,0,0,0,0,0,0,0,0,0,0,0],"split_type":[0,0,0,0,0,0,0,0,0,0,0,0,0,0,0,0,0,0,0,0,0,0,0,0,0,0,0,0,0],"sum_hessian":[5.375E3,4.906E3,4.69E2,3.74E3,1.166E3,4.46E2,2.3E1,2.918E3,8.22E2,1.116E3,5E1,4.24E2,2.2E1,1.7E1,6E0,2.46E3,4.58E2,7.8E2,4.2E1,1.075E3,4.1E1,4.3E1,7E0,3.46E2,7.8E1,1.9E1,3E0,4E0,2E0],"tree_param":{"num_deleted":"0","num_feature":"202","num_nodes":"29","size_leaf_vector":"0"}},{"base_weights":[-8.635499E-2,-1.16064936E-1,4.1319567E-1,-1.6105922E-1,1.6123557E-1,4.391096E-1,-1.9666864E-1,-2.0418581E-1,1.24850914E-1,1.2715796E-1,6.1764526E-1,3.8969064E-1,7.8802806E-1,7.115399E-2,-8.170581E-1,-2.7120078E-1,5.831829E-3,8.882119E-2,6.0272646E-1,1.00833185E-1,4.6891487E-1,6.5521234E-1,3.121245E-2,3.3683306E-1,7.138246E-1,8.5040843E-1,-1.6083175E-1,-1.1731354E-1,5.500161E-1],"categories":[],"categories_nodes":[],"categories_segments":[],"categories_sizes":[],"default_left":[1,1,1,1,1,1,1,1,1,1,1,1,1,1,0,0,0,0,0,0,0,0,0,0,0,0,0,1,1],"id":17,"left_children":[1,3,5,7,9,11,13,15,17,19,21,23,25,-1,-1,-1,-1,-1,-1,-1,-1,-1,-1,-1,-1,-1,-1,-1,-1],"loss_changes":[7.983652E1,6.3346405E1,4.8591614E0,5.3872055E1,1.09487915E1,4.6934395E0,2.2181432E0,5.3413635E1,9.8122225E0,5.899517E0,1.0590477E0,4.1455917E0,2.2084293E0,9.6702397E-1,0E0,0E0,0E0,0E0,0E0,0E0,0E0,0E0,0E0,0E0,0E0,0E0,0E0,0E0,0E0],"parents":[2147483647,0,0,1,1,2,2,3,3,4,4,5,5,6,6,7,7,8,8,9,9,10,10,11,11,12,12,13,13],"right_children":[2,4,6,8,10,12,14,16,18,20,22,24,26,-1,-1,-1,-1,-1,-1,-1,-1,-1,-1,-1,-1,-1,-1,-1,-1],"split_conditions":[4.5465548E-2,9.729859E-2,2.3156476E-1,4.45902E-2,1.10306755E-1,1.1453131E-1,1.4931178E-1,8.5326746E-2,4.5465548E-2,9.714587E-2,2.1183759E-1,1.6516876E-1,2.04112E-1,7.115399E-3,-8.170581E-2,-2.7120078E-2,5.831829E-4,8.882119E-3,6.0272645E-2,1.0083319E-2,4.6891488E-2,6.552123E-2,3.121245E-3,3.3683307E-2,7.138246E-2,8.5040845E-2,-1.6083175E-2,-1.17313545E-2,5.5001613E-2],"split_indices":[119,71,85,63,140,168,172,41,139,127,63,50,32,29,0,0,0,0,0,0,0,0,0,0,0,0,0,2147483647,2147483647],"split_type":[0,0,0,0,0,0,0,0,0,0,0,0,0,0,0,0,0,0,0,0,0,0,0,0,0,0,0,0,0],"sum_hessian":[5.375E3,5.074E3,3.01E2,4.366E3,7.08E2,2.89E2,1.2E1,3.794E3,5.72E2,6.6E2,4.8E1,2.55E2,3.4E1,9E0,3E0,2.876E3,9.18E2,5.33E2,3.9E1,6.14E2,4.6E1,4.5E1,3E0,2.21E2,3.4E1,3.2E1,2E0,7E0,2E0],"tree_param":{"num_deleted":"2","num_feature":"202","num_nodes":"29","size_leaf_vector":"0"}},{"base_weights":[-7.766971E-2,-1.11442566E-1,3.0051738E-1,-1.7531371E-1,6.402108E-2,2.5766563E-1,6.4599806E-1,-2.5795323E-1,4.1977003E-2,4.5249414E-2,5.4924554E-1,1.6536225E-1,3.9448988E-1,7.482654E-1,-1.9458385E-1,-3.3434057E-1,6.451031E-2,2.9505478E-2,9.164396E-1,2.096176E-2,3.4888047E-1,6.436159E-1,5.8308795E-2,5.8597233E-2,3.5912952E-1,4.4008797E-1,-1.0888294E0,8.1712127E-1,6.153623E-2,-4.2657578E-1,1.796E-1],"categories":[],"categories_nodes":[],"categories_segments":[],"categories_sizes":[],"default_left":[1,1,1,1,1,1,1,1,1,1,1,1,1,1,1,0,0,0,0,0,0,0,0,0,0,0,0,0,0,1,1],"id":18,"left_children":[1,3,5,7,9,11,13,15,17,19,21,23,25,27,-1,-1,-1,-1,-1,-1,-1,-1,-1,-1,-1,-1,-1,-1,-1,-1,-1],"loss_changes":[6.869823E1,5.5329285E1,6.3623123E0,6.499649E1,1.1980113E1,4.9107285E0,4.2718735E0,6.4607025E1,1.0857032E1,9.358284E0,2.2326365E0,4.881909E0,1.11657505E1,1.9829865E0,5.9745884E-1,0E0,0E0,0E0,0E0,0E0,0E0,0E0,0E0,0E0,0E0,0E0,0E0,0E0,0E0,0E0,0E0],"parents":[2147483647,0,0,1,1,2,2,3,3,4,4,5,5,6,6,7,7,8,8,9,9,10,10,11,11,12,12,13,13,14,14],"right_children":[2,4,6,8,10,12,14,16,18,20,22,24,26,28,-1,-1,-1,-1,-1,-1,-1,-1,-1,-1,-1,-1,-1,-1,-1,-1,-1],"split_conditions":[4.5465548E-2,4.073654E-2,1.243106E-1,4.45902E-2,1.3396335E-1,4.45902E-2,1.5275428E-1,4.073654E-2,4.8951283E-2,4.363639E-2,1.5235445E-1,1.195043E-1,2.3137812E-1,2.1375513E-1,-1.9458385E-2,-3.343406E-2,6.4510307E-3,2.950548E-3,9.164396E-2,2.096176E-3,3.4888048E-2,6.4361595E-2,5.83088E-3,5.8597233E-3,3.5912953E-2,4.40088E-2,-1.0888294E-1,8.171213E-2,6.153623E-3,-4.265758E-2,1.796E-2],"split_indices":[103,42,160,43,118,50,70,44,194,97,83,48,82,16,14,0,0,0,0,0,0,0,0,0,0,0,0,0,0,2147483647,2147483647],"split_type":[0,0,0,0,0,0,0,0,0,0,0,0,0,0,0,0,0,0,0,0,0,0,0,0,0,0,0,0,0,0,0],"sum_hessian":[5.375E3,4.935E3,4.4E2,3.618E3,1.317E3,3.93E2,4.7E1,2.621E3,9.97E2,1.269E3,4.8E1,2.36E2,1.57E2,4.2E1,5E0,2.119E3,5.02E2,9.84E2,1.3E1,1.176E3,9.3E1,4E1,8E0,1.53E2,8.3E1,1.53E2,4E0,3.8E1,4E0,3E0,2E0],"tree_param":{"num_deleted":"2","num_feature":"202","num_nodes":"31","size_leaf_vector":"0"}},{"base_weights":[-6.98618E-2,-9.3006305E-2,4.1941288E-1,-1.4586142E-1,1.0506651E-1,3.6864865E-1,7.960436E-1,-2.0813778E-1,8.023461E-2,8.698641E-2,6.771586E-1,4.1412702E-1,7.287861E-2,8.530055E-1,-3.709643E-1,-2.6729065E-1,2.7780114E-2,5.5097636E-2,4.211792E-1,6.0588595E-2,4.0203446E-1,7.715004E-1,1.2403691E-1,3.8246596E-1,9.978163E-1,-1.02649756E-1,4.9385032E-1,9.563133E-1,2.0718856E-1],"categories":[],"categories_nodes":[],"categories_segments":[],"categories_sizes":[],"default_left":[1,1,1,1,1,1,1,1,1,1,1,1,1,1,0,0,0,0,0,0,0,0,0,0,0,0,0,0,0],"id":19,"left_children":[1,3,5,7,9,11,13,15,17,19,21,23,25,27,-1,-1,-1,-1,-1,-1,-1,-1,-1,-1,-1,-1,-1,-1,-1],"loss_changes":[6.0916935E1,5.3764E1,4.352543E0,5.708471E1,1.1132744E1,2.8752651E0,2.1777363E0,4.4357132E1,7.4843907E0,8.708051E0,1.6263304E0,3.074173E0,2.267468E0,1.6032467E0,0E0,0E0,0E0,0E0,0E0,0E0,0E0,0E0,0E0,0E0,0E0,0E0,0E0,0E0,0E0],"parents":[2147483647,0,0,1,1,2,2,3,3,4,4,5,5,6,6,7,7,8,8,9,9,10,10,11,11,12,12,13,13],"right_children":[2,4,6,8,10,12,14,16,18,20,22,24,26,28,-1,-1,-1,-1,-1,-1,-1,-1,-1,-1,-1,-1,-1,-1,-1],"split_conditions":[4.5465548E-2,4.073654E-2,1.4015283E-1,4.45902E-2,5.711545E-2,1.5224233E-1,1.6395248E-1,4.073654E-2,1.17693946E-1,9.971094E-2,1.3977662E-1,1.4721018E-1,1.439892E-1,1.4529663E-1,-3.709643E-2,-2.6729066E-2,2.7780114E-3,5.5097635E-3,4.211792E-2,6.0588596E-3,4.020345E-2,7.715004E-2,1.2403691E-2,3.8246598E-2,9.978163E-2,-1.0264976E-2,4.9385034E-2,9.563133E-2,2.0718856E-2],"split_indices":[135,53,161,52,167,97,59,42,116,122,109,198,50,172,0,0,0,0,0,0,0,0,0,0,0,0,0,0,0],"split_type":[0,0,0,0,0,0,0,0,0,0,0,0,0,0,0,0,0,0,0,0,0,0,0,0,0,0,0,0,0],"sum_hessian":[5.375E3,5.133E3,2.42E2,4.052E3,1.081E3,2.15E2,2.7E1,3.177E3,8.75E2,1.049E3,3.2E1,1.86E2,2.9E1,2.6E1,1E0,2.54E3,6.37E2,8.16E2,5.9E1,9.69E2,8E1,2.7E1,5E0,1.78E2,8E0,2.1E1,8E0,2.2E1,4E0],"tree_param":{"num_deleted":"0","num_feature":"202","num_nodes":"29","size_leaf_vector":"0"}},{"base_weights":[-6.279827E-2,-9.79083E-2,2.2326425E-1,-1.1440886E-1,4.5084512E-1,1.8184826E-1,5.222814E-1,-1.70553E-1,3.370098E-2,3.6089975E-1,8.139165E-1,2.3754092E-1,1.884668E-2,6.8196785E-1,3.0635202E-1,-2.512807E-1,3.1066507E-2,7.643731E-2,-1.5451714E-1,3.7849197E-1,-8.1351054E-1,9.601147E-1,2.5904796E-1,2.105098E-1,7.216847E-1,-2.4518073E-1,1.6126554E-1,7.9808927E-1,3.4451047E-1,4.3013424E-1,-8.982313E-3],"categories":[],"categories_nodes":[],"categories_segments":[],"categories_sizes":[],"default_left":[1,1,1,1,1,1,1,1,1,1,1,1,1,1,1,0,0,0,0,0,0,0,0,0,0,0,0,0,0,0,0],"id":20,"left_children":[1,3,5,7,9,11,13,15,17,19,21,23,25,27,29,-1,-1,-1,-1,-1,-1,-1,-1,-1,-1,-1,-1,-1,-1,-1,-1],"loss_changes":[5.40166E1,4.341471E1,7.1868725E0,3.867282E1,4.2781773E0,4.69792E0,2.2392273E0,5.489141E1,1.0299769E1,2.6632023E0,1.9415474E0,4.899637E0,5.0406694E0,1.2924919E0,1.2529125E0,0E0,0E0,0E0,0E0,0E0,0E0,0E0,0E0,0E0,0E0,0E0,0E0,0E0,0E0,0E0,0E0],"parents":[2147483647,0,0,1,1,2,2,3,3,4,4,5,5,6,6,7,7,8,8,9,9,10,10,11,11,12,12,13,13,14,14],"right_children":[2,4,6,8,10,12,14,16,18,20,22,24,26,28,30,-1,-1,-1,-1,-1,-1,-1,-1,-1,-1,-1,-1,-1,-1,-1,-1],"split_conditions":[1.1416183E-1,9.381286E-2,4.8347313E-2,4.073654E-2,1.2654987E-1,1.3098803E-1,5.1107533E-2,8.5326746E-2,1.2891719E-1,2.700435E-1,1.4646122E-1,2.1998322E-1,1.5149349E-1,1.4575495E-1,1.22505024E-1,-2.512807E-2,3.1066507E-3,7.643731E-3,-1.5451714E-2,3.78492E-2,-8.135106E-2,9.6011475E-2,2.5904795E-2,2.105098E-2,7.216847E-2,-2.4518073E-2,1.6126554E-2,7.980893E-2,3.445105E-2,4.3013424E-2,-8.982313E-4],"split_indices":[83,140,150,40,183,67,8,41,3,82,126,19,67,41,70,0,0,0,0,0,0,0,0,0,0,0,0,0,0,0,0],"split_type":[0,0,0,0,0,0,0,0,0,0,0,0,0,0,0,0,0,0,0,0,0,0,0,0,0,0,0,0,0,0,0],"sum_hessian":[5.375E3,4.788E3,5.87E2,4.649E3,1.39E2,5.17E2,7E1,3.371E3,1.278E3,1.13E2,2.6E1,3.85E2,1.32E2,3.9E1,3.1E1,2.407E3,9.64E2,1.042E3,2.36E2,1.12E2,1E0,2E1,6E0,3.66E2,1.9E1,4.6E1,8.6E1,2.8E1,1.1E1,2.2E1,9E0],"tree_param":{"num_deleted":"0","num_feature":"202","num_nodes":"31","size_leaf_vector":"0"}},{"base_weights":[-5.6464534E-2,-8.947505E-2,2.0843439E-1,-1.3885863E-1,7.358899E-2,2.797273E-1,5.9261795E-2,-1.9523507E-1,5.7321977E-2,4.8135832E-2,5.71391E-1,3.6039928E-1,1.0359304E-1,8.13158E-2,-1.3719485E0,-2.6437092E-1,6.7426246E-3,3.1077757E-2,6.279994E-1,2.4605345E-2,3.1407252E-1,3.3302018E-1,8.554786E-1,3.7163666E-1,-7.860817E-1,-1.4970706E-2,4.5975208E-1,1.8833688E-1,-1.2585077E-1],"categories":[],"categories_nodes":[],"categories_segments":[],"categories_sizes":[],"default_left":[1,1,1,1,1,1,1,1,1,1,1,1,1,1,0,0,0,0,0,0,0,0,0,0,0,0,0,0,0],"id":21,"left_children":[1,3,5,7,9,11,13,15,17,19,21,23,25,27,-1,-1,-1,-1,-1,-1,-1,-1,-1,-1,-1,-1,-1,-1,-1],"loss_changes":[4.7028816E1,3.8510117E1,6.3218555E0,4.0601265E1,1.4062238E1,5.6889324E0,6.2349615E0,3.981286E1,1.2261609E1,6.6190906E0,3.371891E0,3.8479652E0,5.4120092E0,4.2805705E0,0E0,0E0,0E0,0E0,0E0,0E0,0E0,0E0,0E0,0E0,0E0,0E0,0E0,0E0,0E0],"parents":[2147483647,0,0,1,1,2,2,3,3,4,4,5,5,6,6,7,7,8,8,9,9,10,10,11,11,12,12,13,13],"right_children":[2,4,6,8,10,12,14,16,18,20,22,24,26,28,-1,-1,-1,-1,-1,-1,-1,-1,-1,-1,-1,-1,-1,-1,-1],"split_conditions":[4.45902E-2,4.073654E-2,1.0541096E-1,4.45902E-2,9.642852E-2,1.179132E-1,2.999582E-1,4.45902E-2,5.115167E-2,1.3357088E-1,1.1085972E-1,2.7561808E-1,1.3570717E-1,1.0283199E-1,-1.3719486E-1,-2.6437093E-2,6.7426247E-4,3.1077757E-3,6.2799945E-2,2.4605345E-3,3.1407252E-2,3.330202E-2,8.554786E-2,3.7163667E-2,-7.860817E-2,-1.4970707E-3,4.597521E-2,1.8833688E-2,-1.25850765E-2],"split_indices":[90,48,4,43,133,8,94,36,140,84,32,50,13,52,0,0,0,0,0,0,0,0,0,0,0,0,0,0,0],"split_type":[0,0,0,0,0,0,0,0,0,0,0,0,0,0,0,0,0,0,0,0,0,0,0,0,0,0,0,0,0],"sum_hessian":[5.375E3,4.78E3,5.95E2,3.669E3,1.111E3,4.02E2,1.93E2,2.85E3,8.19E2,1.058E3,5.3E1,2.75E2,1.27E2,1.91E2,2E0,2.123E3,7.27E2,7.84E2,3.5E1,9.73E2,8.5E1,3E1,2.3E1,2.73E2,2E0,9.6E1,3.1E1,1.26E2,6.5E1],"tree_param":{"num_deleted":"0","num_feature":"202","num_nodes":"29","size_leaf_vector":"0"}},{"base_weights":[-5.0805993E-2,-7.304567E-2,2.984871E-1,-1.0786836E-1,1.1969822E-1,2.6704812E-1,6.9558334E-1,-1.6568492E-1,1.5673963E-2,7.897274E-2,4.4458377E-1,1.8094222E-1,3.946991E-1,7.589144E-1,2.0503213E-1,-2.474318E-1,1.2028045E-2,-1.1531419E-2,2.7224022E-1,9.328594E-2,-6.724897E-1,3.061189E-1,6.473501E-1,2.3740011E-1,-1.1114252E-1,4.2704868E-1,-4.3475124E-1,7.975441E-1,2.7416453E-1],"categories":[],"categories_nodes":[],"categories_segments":[],"categories_sizes":[],"default_left":[1,1,1,1,1,1,1,1,1,1,1,1,1,1,1,0,0,0,0,0,0,0,0,0,0,0,0,1,1],"id":22,"left_children":[1,3,5,7,9,11,-1,15,17,19,21,23,25,-1,-1,-1,-1,-1,-1,-1,-1,-1,-1,-1,-1,-1,-1,-1,-1],"loss_changes":[4.1783463E1,3.394136E1,3.8341942E0,3.0588036E1,1.0205775E1,3.2260342E0,5.589428E-1,4.237963E1,9.537796E0,7.4735045E0,2.2163715E0,3.0111637E0,3.4055462E0,1.5585613E-1,0E0,0E0,0E0,0E0,0E0,0E0,0E0,0E0,0E0,0E0,0E0,0E0,0E0,0E0,0E0],"parents":[2147483647,0,0,1,1,2,2,3,3,4,4,5,5,6,6,7,7,8,8,9,9,10,10,11,11,12,12,13,13],"right_children":[2,4,6,8,10,12,-1,16,18,20,22,24,26,-1,-1,-1,-1,-1,-1,-1,-1,-1,-1,-1,-1,-1,-1,-1,-1],"split_conditions":[4.45902E-2,4.45902E-2,1.7102249E-1,4.45902E-2,1.0780102E-1,1.0729428E-1,6.955834E-2,4.45902E-2,4.5465548E-2,2.4908519E-1,5.1107533E-2,1.5107292E-1,2.4414621E-1,7.589144E-2,2.0503214E-2,-2.474318E-2,1.2028045E-3,-1.153142E-3,2.7224023E-2,9.328594E-3,-6.724897E-2,3.0611891E-2,6.473501E-2,2.3740012E-2,-1.1114253E-2,4.270487E-2,-4.3475125E-2,7.975441E-2,2.7416453E-2],"split_indices":[120,68,139,35,121,55,189,36,83,94,6,11,5,2147483647,2147483647,0,0,0,0,0,0,0,0,0,0,0,0,2147483647,2147483647],"split_type":[0,0,0,0,0,0,0,0,0,0,0,0,0,0,0,0,0,0,0,0,0,0,0,0,0,0,0,0,0],"sum_hessian":[5.375E3,5.054E3,3.21E2,4.281E3,7.73E2,2.99E2,2.2E1,2.916E3,1.365E3,6.88E2,8.5E1,1.8E2,1.19E2,1.9E1,3E0,1.997E3,9.19E2,1.235E3,1.3E2,6.76E2,1.2E1,5.2E1,3.3E1,1.51E2,2.9E1,1.15E2,4E0,1.7E1,2E0],"tree_param":{"num_deleted":"4","num_feature":"202","num_nodes":"29","size_leaf_vector":"0"}},{"base_weights":[-4.5702815E-2,-7.071128E-2,2.3362403E-1,-1.0830012E-1,8.957752E-2,2.9924124E-1,2.0174153E-2,-1.4931168E-1,7.276345E-2,7.261642E-2,7.3248714E-1,2.7546617E-1,9.22175E-1,-7.020901E-2,5.6715375E-1,-1.9971415E-1,2.4416393E-2,5.6120068E-2,5.4585356E-1,3.8302157E-2,3.0864048E-1,7.861881E-1,9.451747E-2,2.2153606E-1,5.070051E-1,9.924794E-1,7.441348E-2,6.1897147E-2,-3.696585E-1,7.266194E-1,-3.1291524E-1],"categories":[],"categories_nodes":[],"categories_segments":[],"categories_sizes":[],"default_left":[1,1,1,1,1,1,1,1,1,1,1,1,1,1,1,0,0,0,0,0,0,1,1,0,0,1,1,0,0,0,0],"id":23,"left_children":[1,3,5,7,9,11,13,15,17,19,-1,23,-1,27,29,-1,-1,-1,-1,-1,-1,-1,-1,-1,-1,-1,-1,-1,-1,-1,-1],"loss_changes":[3.7570755E1,2.974342E1,6.1846066E0,2.9698807E1,1.0175188E1,4.75185E0,5.230783E0,2.8550507E1,5.7881174E0,7.3987556E0,7.4792385E-1,3.9709015E0,6.413622E-1,3.6227608E0,2.3324823E0,0E0,0E0,0E0,0E0,0E0,0E0,0E0,0E0,0E0,0E0,0E0,0E0,0E0,0E0,0E0,0E0],"parents":[2147483647,0,0,1,1,2,2,3,3,4,4,5,5,6,6,7,7,8,8,9,9,10,10,11,11,12,12,13,13,14,14],"right_children":[2,4,6,8,10,12,14,16,18,20,-1,24,-1,28,30,-1,-1,-1,-1,-1,-1,-1,-1,-1,-1,-1,-1,-1,-1,-1,-1],"split_conditions":[1.098189E-1,9.690659E-2,1.385125E-1,8.5326746E-2,1.18049145E-1,2.3875922E-1,5.6631655E-2,4.073654E-2,1.1826621E-1,1.103872E-1,7.3248714E-2,1.19586594E-1,9.22175E-2,1.1845912E-1,2.2427726E-1,-1.9971415E-2,2.4416393E-3,5.612007E-3,5.4585356E-2,3.8302157E-3,3.0864049E-2,7.861882E-2,9.451747E-3,2.2153607E-2,5.070051E-2,9.924794E-2,7.441348E-3,6.1897147E-3,-3.696585E-2,7.2661944E-2,-3.1291526E-2],"split_indices":[97,55,11,54,159,38,153,40,154,95,141,125,1,6,85,0,0,0,0,0,0,2147483647,2147483647,0,0,2147483647,2147483647,0,0,0,0],"split_type":[0,0,0,0,0,0,0,0,0,0,0,0,0,0,0,0,0,0,0,0,0,0,0,0,0,0,0,0,0,0,0],"sum_hessian":[5.375E3,4.934E3,4.41E2,3.997E3,9.37E2,3.37E2,1.04E2,3.259E3,7.38E2,9.14E2,2.3E1,3.26E2,1.1E1,9E1,1.4E1,2.526E3,7.33E2,7.14E2,2.4E1,7.99E2,1.15E2,2.1E1,2E0,2.66E2,6E1,1E1,1E0,6.3E1,2.7E1,1.2E1,2E0],"tree_param":{"num_deleted":"4","num_feature":"202","num_nodes":"31","size_leaf_vector":"0"}},{"base_weights":[-4.107184E-2,-7.324203E-2,1.4972214E-1,-9.212712E-2,2.7181607E-1,1.5925796E-1,-7.856232E-1,-1.4260119E-1,3.2566506E-2,3.0044633E-1,-4.932286E-1,2.4123575E-1,4.0975776E-2,-2.0896898E-1,5.752487E-3,1.5372489E-2,4.4766656E-1,3.229545E-1,-3.673383E-1,7.400683E-2,-1.2207747E0,1.7812651E-1,4.778472E-1,2.1910537E-2,6.22181E-1],"categories":[],"categories_nodes":[],"categories_segments":[],"categories_sizes":[],"default_left":[1,1,1,1,1,1,0,1,1,1,1,1,1,0,0,0,0,0,0,0,0,0,0,0,0],"id":24,"left_children":[1,3,5,7,9,11,-1,13,15,17,19,21,23,-1,-1,-1,-1,-1,-1,-1,-1,-1,-1,-1,-1],"loss_changes":[3.3008205E1,3.0007244E1,7.0464764E0,2.746447E1,5.383108E0,7.4467335E0,0E0,3.0582592E1,8.971764E0,3.590704E0,3.804555E0,6.6941757E0,3.487905E0,0E0,0E0,0E0,0E0,0E0,0E0,0E0,0E0,0E0,0E0,0E0,0E0],"parents":[2147483647,0,0,1,1,2,2,3,3,4,4,5,5,7,7,8,8,9,9,10,10,11,11,12,12],"right_children":[2,4,6,8,10,12,-1,14,16,18,20,22,24,-1,-1,-1,-1,-1,-1,-1,-1,-1,-1,-1,-1],"split_conditions":[8.5326746E-2,4.5465548E-2,3.5503715E-1,4.45902E-2,2.1059808E-1,1.0830735E-1,-7.856232E-2,4.45902E-2,9.852257E-2,2.569697E-1,1.4524294E-1,1.2575166E-1,5.8100644E-2,-2.0896899E-2,5.7524873E-4,1.5372488E-3,4.4766657E-2,3.229545E-2,-3.6733832E-2,7.4006836E-3,-1.22077465E-1,1.7812653E-2,4.778472E-2,2.1910537E-3,6.22181E-2],"split_indices":[72,107,39,38,4,1,0,39,125,111,94,93,168,0,0,0,0,0,0,0,0,0,0,0,0],"split_type":[0,0,0,0,0,0,0,0,0,0,0,0,0,0,0,0,0,0,0,0,0,0,0,0,0],"sum_hessian":[5.375E3,4.6E3,7.75E2,4.362E3,2.38E2,7.68E2,7E0,3.105E3,1.257E3,2.3E2,8E0,4.53E2,3.15E2,2.145E3,9.6E2,1.208E3,4.9E1,2.23E2,7E0,5E0,3E0,3.59E2,9.4E1,3.06E2,9E0],"tree_param":{"num_deleted":"0","num_feature":"202","num_nodes":"25","size_leaf_vector":"0"}},{"base_weights":[-3.6972407E-2,-5.2907947E-2,3.0278656E-1,-9.689775E-2,6.272692E-2,3.3478823E-1,-4.6993065E-1,-1.5404713E-1,4.940111E-2,4.4007383E-2,3.1130904E-1,2.8238872E-1,6.654305E-1,-7.142529E-1,7.511595E-2,-2.1090467E-1,3.8052343E-2,2.3890674E-2,3.16858E-1,4.801369E-2,-8.40041E-1,1.845344E-1,5.8344257E-1,2.2850507E-1,5.959531E-1,7.9009265E-1,2.0826514E-1,-8.698701E-1,-2.1680658E-1,3.4363568E-1,-1.2893586E-1],"categories":[],"categories_nodes":[],"categories_segments":[],"categories_sizes":[],"default_left":[1,1,1,1,1,1,1,1,1,1,1,1,1,1,1,0,0,0,0,0,0,0,0,0,0,0,0,1,1,1,1],"id":25,"left_children":[1,3,5,7,9,11,13,15,17,19,21,23,25,-1,-1,-1,-1,-1,-1,-1,-1,-1,-1,-1,-1,-1,-1,-1,-1,-1,-1],"loss_changes":[2.912299E1,2.6131653E1,6.1168327E0,3.1118477E1,6.5754337E0,3.831602E0,1.3853219E0,2.9236107E1,7.1292267E0,4.7083864E0,3.3077984E0,3.2768135E0,1.6021805E0,3.5328484E-1,2.634747E-1,0E0,0E0,0E0,0E0,0E0,0E0,0E0,0E0,0E0,0E0,0E0,0E0,0E0,0E0,0E0,0E0],"parents":[2147483647,0,0,1,1,2,2,3,3,4,4,5,5,6,6,7,7,8,8,9,9,10,10,11,11,12,12,13,13,14,14],"right_children":[2,4,6,8,10,12,14,16,18,20,22,24,26,-1,-1,-1,-1,-1,-1,-1,-1,-1,-1,-1,-1,-1,-1,-1,-1,-1,-1],"split_conditions":[9.8243006E-2,4.073654E-2,2.0678574E-1,4.45902E-2,1.8231624E-1,1.3416249E-1,5.9632644E-2,8.5326746E-2,1.3348278E-1,1.3950498E-1,1.2068994E-1,1.6151726E-1,1.6982059E-1,-7.142529E-2,7.511595E-3,-2.1090468E-2,3.8052343E-3,2.3890676E-3,3.16858E-2,4.8013693E-3,-8.40041E-2,1.845344E-2,5.8344256E-2,2.2850508E-2,5.9595313E-2,7.9009265E-2,2.0826515E-2,-8.698701E-2,-2.1680659E-2,3.4363568E-2,-1.2893586E-2],"split_indices":[129,42,4,43,71,169,46,41,89,0,23,48,12,4,1,0,0,0,0,0,0,0,0,0,0,0,0,2147483647,2147483647,2147483647,2147483647],"split_type":[0,0,0,0,0,0,0,0,0,0,0,0,0,0,0,0,0,0,0,0,0,0,0,0,0,0,0,0,0,0,0],"sum_hessian":[5.375E3,5.135E3,2.4E2,3.72E3,1.415E3,2.31E2,9E0,2.675E3,1.045E3,1.317E3,9.8E1,2.01E2,3E1,6E0,3E0,2.064E3,6.11E2,9.55E2,9E1,1.312E3,5E0,6.8E1,3E1,1.73E2,2.8E1,2.3E1,7E0,4E0,2E0,1E0,2E0],"tree_param":{"num_deleted":"4","num_feature":"202","num_nodes":"31","size_leaf_vector":"0"}},{"base_weights":[-3.325048E-2,-4.5982763E-2,3.4994054E-1,-8.5886106E-2,6.776987E-2,3.651445E-1,-6.333311E-1,-1.3896337E-1,5.482987E-2,4.628993E-2,3.0287924E-1,3.2699567E-1,7.6959956E-1,-1.9666627E-1,2.148405E-2,4.50183E-2,5.608183E-1,2.083318E-2,2.2304817E-1,2.2949737E-1,7.334133E-1,3.4063238E-1,-4.9111214E-1,9.4307554E-1,1.0014087E-1],"categories":[],"categories_nodes":[],"categories_segments":[],"categories_sizes":[],"default_left":[1,1,1,1,1,1,0,1,1,1,1,1,1,0,0,0,0,0,0,0,0,0,0,0,0],"id":26,"left_children":[1,3,5,7,9,11,-1,13,15,17,19,21,23,-1,-1,-1,-1,-1,-1,-1,-1,-1,-1,-1,-1],"loss_changes":[2.6245037E1,2.3627352E1,2.8175411E0,2.8784979E1,6.813765E0,2.3867855E0,0E0,2.5908897E1,5.217309E0,5.5749693E0,3.4017372E0,1.929987E0,1.5314493E0,0E0,0E0,0E0,0E0,0E0,0E0,0E0,0E0,0E0,0E0,0E0,0E0],"parents":[2147483647,0,0,1,1,2,2,3,3,4,4,5,5,7,7,8,8,9,9,10,10,11,11,12,12],"right_children":[2,4,6,8,10,12,-1,14,16,18,20,22,24,-1,-1,-1,-1,-1,-1,-1,-1,-1,-1,-1,-1],"split_conditions":[8.524376E-2,4.073654E-2,3.2201982E-1,4.45902E-2,9.381286E-2,1.8739747E-1,-6.333312E-2,1.0207051E-1,1.2238935E-1,1.8783583E-1,1.8865016E-1,2.8668866E-1,1.22970864E-1,-1.9666627E-2,2.1484052E-3,4.5018303E-3,5.608183E-2,2.083318E-3,2.2304816E-2,2.2949738E-2,7.334133E-2,3.406324E-2,-4.9111214E-2,9.430756E-2,1.0014087E-2],"split_indices":[155,44,39,45,118,73,0,35,161,37,48,26,114,0,0,0,0,0,0,0,0,0,0,0,0],"split_type":[0,0,0,0,0,0,0,0,0,0,0,0,0,0,0,0,0,0,0,0,0,0,0,0,0],"sum_hessian":[5.375E3,5.203E3,1.72E2,3.852E3,1.351E3,1.7E2,2E0,2.797E3,1.055E3,1.239E3,1.12E2,1.57E2,1.3E1,2.057E3,7.4E2,1.036E3,1.9E1,1.084E3,1.55E2,9.7E1,1.5E1,1.55E2,2E0,1E1,3E0],"tree_param":{"num_deleted":"0","num_feature":"202","num_nodes":"25","size_leaf_vector":"0"}},{"base_weights":[-2.9890148E-2,-5.4392718E-2,1.4527425E-1,-7.821321E-2,1.3969275E-1,1.07183106E-1,3.6525497E-1,-1.2179793E-1,3.1433493E-2,1.057652E-1,4.164946E-1,7.668534E-2,3.7710732E-1,4.5301437E-1,4.5483667E-2,-1.8268298E-1,1.186484E-2,7.0299745E-2,-7.6097526E-2,7.059361E-2,4.0691674E-1,5.454495E-1,-1.01794206E-1,3.7806705E-2,3.8981634E-1,5.662039E-1,7.2955765E-2,5.4418534E-1,1.2900878E-1,-1.428357E-1,7.1433663E-1],"categories":[],"categories_nodes":[],"categories_segments":[],"categories_sizes":[],"default_left":[1,1,1,1,1,1,1,1,1,1,1,1,1,1,1,0,0,0,0,0,0,0,0,0,0,0,0,0,0,0,0],"id":27,"left_children":[1,3,5,7,9,11,13,15,17,19,21,23,25,27,29,-1,-1,-1,-1,-1,-1,-1,-1,-1,-1,-1,-1,-1,-1,-1,-1],"loss_changes":[2.3081573E1,2.1818615E1,5.4911995E0,2.0084848E1,4.801812E0,4.613978E0,2.701501E0,2.4473331E1,5.003825E0,4.854177E0,3.7983341E0,6.1697083E0,3.236991E0,2.1748276E0,2.8731081E0,0E0,0E0,0E0,0E0,0E0,0E0,0E0,0E0,0E0,0E0,0E0,0E0,0E0,0E0,0E0,0E0],"parents":[2147483647,0,0,1,1,2,2,3,3,4,4,5,5,6,6,7,7,8,8,9,9,10,10,11,11,12,12,13,13,14,14],"right_children":[2,4,6,8,10,12,14,16,18,20,22,24,26,28,30,-1,-1,-1,-1,-1,-1,-1,-1,-1,-1,-1,-1,-1,-1,-1,-1],"split_conditions":[9.381286E-2,8.5326746E-2,1.3094471E-1,4.073654E-2,1.7553012E-1,1.8900779E-1,1.3675842E-1,4.45902E-2,1.1845912E-1,1.1023627E-1,1.4969447E-1,1.4435065E-1,1.0421306E-1,1.3450056E-1,1.7170829E-1,-1.8268298E-2,1.186484E-3,7.0299744E-3,-7.6097525E-3,7.0593613E-3,4.0691674E-2,5.454495E-2,-1.0179421E-2,3.7806705E-3,3.8981635E-2,5.662039E-2,7.2955764E-3,5.4418534E-2,1.2900879E-2,-1.428357E-2,7.143366E-2],"split_indices":[79,80,107,37,52,35,87,36,2,152,51,101,46,29,76,0,0,0,0,0,0,0,0,0,0,0,0,0,0,0,0],"split_type":[0,0,0,0,0,0,0,0,0,0,0,0,0,0,0,0,0,0,0,0,0,0,0,0,0,0,0,0,0,0,0],"sum_hessian":[5.375E3,4.716E3,6.59E2,4.201E3,5.15E2,5.63E2,9.6E1,3.006E3,1.195E3,4.6E2,5.5E1,5.07E2,5.6E1,7.5E1,2.1E1,2.065E3,9.41E2,8.78E2,3.17E2,4.13E2,4.7E1,4.4E1,1.1E1,4.52E2,5.5E1,3.4E1,2.2E1,5.8E1,1.7E1,1.7E1,4E0],"tree_param":{"num_deleted":"0","num_feature":"202","num_nodes":"31","size_leaf_vector":"0"}},{"base_weights":[-2.6844291E-2,-3.8169328E-2,3.1195462E-1,-7.845828E-2,4.7564484E-2,2.3277004E-1,5.631443E-1,-1.4378491E-1,3.742108E-2,3.2903243E-2,3.7604976E-1,2.766689E-1,-2.3659073E-1,7.429145E-1,2.0201503E-1,-2.2163153E-1,4.25397E-2,1.5450961E-2,2.1291852E-1,1.4612011E-2,2.7714908E-1,4.0983924E-1,-2.9238385E-1,2.2949171E-1,6.010452E-1,-4.6470255E-1,3.3580858E-1,8.771089E-1,3.7706915E-1,3.9949736E-1,-2.7284908E-1],"categories":[],"categories_nodes":[],"categories_segments":[],"categories_sizes":[],"default_left":[1,1,1,1,1,1,1,1,1,1,1,1,1,1,1,0,0,0,0,0,0,0,0,0,0,0,0,1,1,0,0],"id":28,"left_children":[1,3,5,7,9,11,13,15,17,19,21,23,25,-1,29,-1,-1,-1,-1,-1,-1,-1,-1,-1,-1,-1,-1,-1,-1,-1,-1],"loss_changes":[2.0639135E1,1.7975548E1,3.329836E0,2.680321E1,8.001454E0,2.8264475E0,2.511652E0,3.2848164E1,4.920439E0,7.1172366E0,1.7234383E0,1.7443542E0,1.7229035E0,9.9481773E-1,1.5156612E0,0E0,0E0,0E0,0E0,0E0,0E0,0E0,0E0,0E0,0E0,0E0,0E0,0E0,0E0,0E0,0E0],"parents":[2147483647,0,0,1,1,2,2,3,3,4,4,5,5,6,6,7,7,8,8,9,9,10,10,11,11,12,12,13,13,14,14],"right_children":[2,4,6,8,10,12,14,16,18,20,22,24,26,-1,30,-1,-1,-1,-1,-1,-1,-1,-1,-1,-1,-1,-1,-1,-1,-1,-1],"split_conditions":[1.11819796E-1,9.884697E-2,1.5345508E-1,4.45902E-2,1.1490824E-1,1.5910386E-1,4.5465548E-2,9.005575E-2,1.2015543E-1,1.5510097E-1,1.9323549E-1,1.655494E-1,1.4484438E-1,7.429145E-2,5.526382E-2,-2.2163153E-2,4.25397E-3,1.5450962E-3,2.1291852E-2,1.4612011E-3,2.7714908E-2,4.0983927E-2,-2.9238386E-2,2.2949172E-2,6.010452E-2,-4.6470255E-2,3.358086E-2,8.771089E-2,3.7706915E-2,3.9949737E-2,-2.7284909E-2],"split_indices":[145,34,31,35,127,116,103,36,79,74,117,94,135,54,117,0,0,0,0,0,0,0,0,0,0,0,0,2147483647,2147483647,0,0],"split_type":[0,0,0,0,0,0,0,0,0,0,0,0,0,0,0,0,0,0,0,0,0,0,0,0,0,0,0,0,0,0,0],"sum_hessian":[5.375E3,5.202E3,1.73E2,3.539E3,1.663E3,1.33E2,4E1,2.263E3,1.276E3,1.593E3,7E1,1.22E2,1.1E1,2.6E1,1.4E1,1.596E3,6.67E2,1.135E3,1.41E2,1.483E3,1.1E2,6.7E1,3E0,1.08E2,1.4E1,8E0,3E0,1.8E1,8E0,1E1,4E0],"tree_param":{"num_deleted":"2","num_feature":"202","num_nodes":"31","size_leaf_vector":"0"}},{"base_weights":[-2.4122108E-2,-3.5248484E-2,2.814216E-1,-5.907231E-2,9.549904E-2,3.6639568E-1,3.1161033E-2,-1.00164466E-1,2.9100312E-2,7.489684E-2,3.234856E-1,4.266231E-1,1.9236462E-3,-3.0293083E-1,2.925489E-1,-1.6314657E-1,2.062322E-2,8.007239E-3,3.5030866E-1,5.9851207E-2,3.4186894E-1,4.172012E-1,6.97049E-2,4.5228404E-1,-4.3703043E-1,2.476344E-1,-2.4396199E-1,-6.017407E-1,5.0582763E-2,4.114925E-1,-3.3689028E-1],"categories":[],"categories_nodes":[],"categories_segments":[],"categories_sizes":[],"default_left":[1,1,1,1,1,1,1,1,1,1,1,1,1,1,1,0,0,0,0,0,0,0,0,0,0,0,0,0,0,0,0],"id":29,"left_children":[1,3,5,7,9,11,13,15,17,19,21,23,25,27,29,-1,-1,-1,-1,-1,-1,-1,-1,-1,-1,-1,-1,-1,-1,-1,-1],"loss_changes":[1.8286137E1,1.6165773E1,4.0077925E0,1.5905152E1,3.7333908E0,3.0943012E0,4.3676724E0,2.2780107E1,9.455473E0,2.931861E0,1.5406103E0,2.879284E0,1.329165E0,2.3543715E0,2.2349255E0,0E0,0E0,0E0,0E0,0E0,0E0,0E0,0E0,0E0,0E0,0E0,0E0,0E0,0E0,0E0,0E0],"parents":[2147483647,0,0,1,1,2,2,3,3,4,4,5,5,6,6,7,7,8,8,9,9,10,10,11,11,12,12,13,13,14,14],"right_children":[2,4,6,8,10,12,14,16,18,20,22,24,26,28,30,-1,-1,-1,-1,-1,-1,-1,-1,-1,-1,-1,-1,-1,-1,-1,-1],"split_conditions":[1.0626338E-1,8.5326746E-2,1.3215165E-1,4.45902E-2,1.7431846E-1,1.7090112E-1,1.6325204E-1,4.45902E-2,1.1304337E-1,1.00027636E-1,1.4060304E-1,2.391717E-1,1.3301513E-1,1.1876255E-1,1.8037397E-1,-1.6314657E-2,2.062322E-3,8.0072385E-4,3.5030868E-2,5.985121E-3,3.4186896E-2,4.172012E-2,6.97049E-3,4.5228403E-2,-4.3703046E-2,2.476344E-2,-2.43962E-2,-6.0174074E-2,5.0582765E-3,4.114925E-2,-3.368903E-2],"split_indices":[142,65,65,35,84,89,65,34,95,144,15,8,64,126,9,0,0,0,0,0,0,0,0,0,0,0,0,0,0,0,0],"split_type":[0,0,0,0,0,0,0,0,0,0,0,0,0,0,0,0,0,0,0,0,0,0,0,0,0,0,0,0,0,0,0],"sum_hessian":[5.375E3,5.187E3,1.88E2,4.388E3,7.99E2,1.4E2,4.8E1,2.993E3,1.395E3,7.34E2,6.5E1,1.2E2,2E1,2.1E1,2.7E1,1.967E3,1.026E3,1.31E3,8.5E1,6.96E2,3.8E1,4.7E1,1.8E1,1.17E2,3E0,1E1,1E1,1.1E1,1E1,2.3E1,4E0],"tree_param":{"num_deleted":"0","num_feature":"202","num_nodes":"31","size_leaf_vector":"0"}},{"base_weights":[-2.169786E-2,-3.315092E-2,2.4434815E-1,-6.206863E-2,7.475051E-2,2.8769785E-1,-3.81195E-3,-9.98828E-2,5.8564458E-2,5.0853707E-2,2.961053E-1,3.081776E-1,-2.888E-1,1.15377344E-1,-3.4771302E-1,-1.3843991E-1,3.7053842E-2,4.5745153E-2,4.458032E-1,3.7426043E-2,4.370874E-1,3.2900256E-1,-3.0701658E-1,4.2365712E-1,1.8677345E-1,-2.9511118E-2,-6.246815E-1,2.0809695E-1,-3.156644E-1,-5.007821E-1,-3.1181172E-2],"categories":[],"categories_nodes":[],"categories_segments":[],"categories_sizes":[],"default_left":[1,1,1,1,1,1,1,1,1,1,1,1,1,1,1,0,0,0,0,0,0,0,0,0,0,1,1,0,0,1,1],"id":30,"left_children":[1,3,5,7,9,11,13,15,17,19,21,23,-1,27,-1,-1,-1,-1,-1,-1,-1,-1,-1,-1,-1,-1,-1,-1,-1,-1,-1],"loss_changes":[1.638899E1,1.6089592E1,2.3892984E0,1.8553478E1,5.7506847E0,2.3204327E0,1.4337553E0,1.6351639E1,4.799778E0,5.092065E0,2.2041626E0,2.486475E0,5.9119725E-1,1.1048054E0,4.2044628E-1,0E0,0E0,0E0,0E0,0E0,0E0,0E0,0E0,0E0,0E0,0E0,0E0,0E0,0E0,0E0,0E0],"parents":[2147483647,0,0,1,1,2,2,3,3,4,4,5,5,6,6,7,7,8,8,9,9,10,10,11,11,12,12,13,13,14,14],"right_children":[2,4,6,8,10,12,14,16,18,20,22,24,-1,28,-1,-1,-1,-1,-1,-1,-1,-1,-1,-1,-1,-1,-1,-1,-1,-1,-1],"split_conditions":[1.09263696E-1,4.073654E-2,1.3821968E-1,4.073654E-2,1.942116E-1,2.3156476E-1,1.2965363E-1,4.073654E-2,2.0552635E-1,1.1338498E-1,2.2085378E-1,4.073654E-2,-2.888E-2,1.3924177E-1,-3.4771305E-2,-1.3843991E-2,3.7053842E-3,4.5745154E-3,4.458032E-2,3.7426043E-3,4.3708738E-2,3.2900255E-2,-3.0701658E-2,4.236571E-2,1.8677345E-2,-2.9511119E-3,-6.246815E-2,2.0809695E-2,-3.156644E-2,-5.007821E-2,-3.118117E-3],"split_indices":[135,53,53,42,41,85,132,40,71,157,10,1,14,134,8,0,0,0,0,0,0,0,0,0,0,2147483647,2147483647,0,0,2147483647,2147483647],"split_type":[0,0,0,0,0,0,0,0,0,0,0,0,0,0,0,0,0,0,0,0,0,0,0,0,0,0,0,0,0,0,0],"sum_hessian":[5.375E3,5.154E3,2.21E2,4.065E3,1.089E3,1.88E2,3.3E1,3.095E3,9.7E2,9.84E2,1.05E2,1.82E2,6E0,2.5E1,8E0,2.415E3,6.8E2,9.4E2,3E1,9.52E2,3.2E1,1E2,5E0,9.2E1,9E1,4E0,2E0,2.1E1,4E0,5E0,3E0],"tree_param":{"num_deleted":"4","num_feature":"202","num_nodes":"31","size_leaf_vector":"0"}},{"base_weights":[-1.9514058E-2,-3.371914E-2,1.750247E-1,-6.532462E-2,4.9904734E-2,1.3387723E-1,3.9573854E-1,-1.11353345E-1,2.929976E-2,3.5611242E-2,3.9890635E-1,1.0058372E-1,3.925954E-1,4.360458E-1,-4.7514042E-1,-1.6257855E-1,4.0842276E-2,4.8059016E-3,1.6959336E-1,2.9106703E-2,5.647253E-1,4.4178122E-1,-2.4747488E-1,1.6159075E-1,-6.506968E-2,2.658775E-1,7.291274E-1,6.349548E-1,2.4912314E-1],"categories":[],"categories_nodes":[],"categories_segments":[],"categories_sizes":[],"default_left":[1,1,1,1,1,1,1,1,1,1,1,1,1,1,0,0,0,0,0,0,0,0,0,0,0,0,0,0,0],"id":31,"left_children":[1,3,5,7,9,11,13,15,17,19,21,23,25,27,-1,-1,-1,-1,-1,-1,-1,-1,-1,-1,-1,-1,-1,-1,-1],"loss_changes":[1.4862152E1,1.3247193E1,3.2709637E0,1.5843998E1,6.8449144E0,2.6307392E0,2.2080393E0,1.908407E1,4.091856E0,4.5334163E0,1.6058598E0,2.7997775E0,1.2987041E0,1.8867502E0,0E0,0E0,0E0,0E0,0E0,0E0,0E0,0E0,0E0,0E0,0E0,0E0,0E0,0E0,0E0],"parents":[2147483647,0,0,1,1,2,2,3,3,4,4,5,5,6,6,7,7,8,8,9,9,10,10,11,11,12,12,13,13],"right_children":[2,4,6,8,10,12,14,16,18,20,22,24,26,28,-1,-1,-1,-1,-1,-1,-1,-1,-1,-1,-1,-1,-1,-1,-1],"split_conditions":[1.1085972E-1,1.1025724E-1,1.6936062E-1,4.073654E-2,1.6681656E-1,1.7312664E-1,2.2526288E-1,4.073654E-2,1.1075245E-1,1.1380024E-1,2.3609123E-1,1.3447055E-1,1.5259494E-1,5.1107533E-2,-4.7514044E-2,-1.6257856E-2,4.0842276E-3,4.8059016E-4,1.6959338E-2,2.9106704E-3,5.647253E-2,4.4178125E-2,-2.4747489E-2,1.6159076E-2,-6.5069683E-3,2.6587749E-2,7.2912745E-2,6.349548E-2,2.4912314E-2],"split_indices":[108,38,76,37,83,64,86,34,75,183,64,24,35,1,0,0,0,0,0,0,0,0,0,0,0,0,0,0,0],"split_type":[0,0,0,0,0,0,0,0,0,0,0,0,0,0,0,0,0,0,0,0,0,0,0,0,0,0,0,0,0],"sum_hessian":[5.375E3,5.01E3,3.65E2,3.636E3,1.374E3,3.09E2,5.6E1,2.446E3,1.19E3,1.321E3,5.3E1,2.75E2,3.4E1,5.4E1,2E0,1.83E3,6.16E2,1.014E3,1.76E2,1.306E3,1.5E1,5E1,3E0,2.01E2,7.4E1,2.6E1,8E0,2.5E1,2.9E1],"tree_param":{"num_deleted":"0","num_feature":"202","num_nodes":"29","size_leaf_vector":"0"}},{"base_weights":[-1.7519094E-2,-2.9023962E-2,2.0186855E-1,-5.727467E-2,5.641835E-2,3.0759782E-1,-7.16088E-3,-9.3645535E-2,4.8674E-2,4.518814E-2,4.097312E-1,3.522568E-1,-8.68049E-3,-1.2112595E-1,3.3504567E-1,-1.3338661E-1,4.0017523E-2,5.914209E-3,1.3086718E-1,7.2111525E-2,-7.497572E-2,4.984328E-1,-8.2083225E-1,4.0770715E-1,5.932395E-2,-1.3094006E-1,4.5764202E-1,-6.377962E-2,-1.037059E0,6.490872E-1,-6.655297E-2],"categories":[],"categories_nodes":[],"categories_segments":[],"categories_sizes":[],"default_left":[1,1,1,1,1,1,1,1,1,1,1,1,1,1,1,0,0,0,0,0,0,0,0,0,0,0,0,0,0,0,0],"id":32,"left_children":[1,3,5,7,9,11,13,15,17,19,21,23,25,27,29,-1,-1,-1,-1,-1,-1,-1,-1,-1,-1,-1,-1,-1,-1,-1,-1],"loss_changes":[1.3575021E1,1.2335365E1,5.9251423E0,1.4801786E1,5.0205626E0,2.51725E0,3.5895457E0,1.5192099E1,3.4505274E0,3.9911947E0,4.6660943E0,2.509758E0,1.3712087E0,3.558109E0,2.9439275E0,0E0,0E0,0E0,0E0,0E0,0E0,0E0,0E0,0E0,0E0,0E0,0E0,0E0,0E0,0E0,0E0],"parents":[2147483647,0,0,1,1,2,2,3,3,4,4,5,5,6,6,7,7,8,8,9,9,10,10,11,11,12,12,13,13,14,14],"right_children":[2,4,6,8,10,12,14,16,18,20,22,24,26,28,30,-1,-1,-1,-1,-1,-1,-1,-1,-1,-1,-1,-1,-1,-1,-1,-1],"split_conditions":[1.576483E-1,4.45902E-2,1.0278785E-1,4.45902E-2,1.83979E-1,1.8348399E-1,1.6910064E-1,4.45902E-2,1.1057748E-1,1.342852E-1,1.9055116E-1,1.520295E-1,7.485924E-2,1.9754414E-1,1.1321494E-1,-1.3338662E-2,4.0017525E-3,5.914209E-4,1.30867185E-2,7.2111525E-3,-7.4975723E-3,4.9843278E-2,-8.2083225E-2,4.0770717E-2,5.9323953E-3,-1.3094007E-2,4.5764204E-2,-6.3779624E-3,-1.037059E-1,6.490872E-2,-6.655297E-3],"split_indices":[81,46,4,47,91,65,33,38,21,3,127,49,133,38,56,0,0,0,0,0,0,0,0,0,0,0,0,0,0,0,0],"split_type":[0,0,0,0,0,0,0,0,0,0,0,0,0,0,0,0,0,0,0,0,0,0,0,0,0,0,0,0,0,0,0],"sum_hessian":[5.375E3,5.108E3,2.67E2,3.839E3,1.269E3,1.77E2,9E1,2.858E3,9.81E2,1.231E3,3.8E1,1.55E2,2.2E1,6.8E1,2.2E1,2.203E3,6.55E2,6.46E2,3.35E2,1.006E3,2.25E2,3.6E1,2E0,1.3E2,2.5E1,1.8E1,4E0,6.5E1,3E0,1.2E1,1E1],"tree_param":{"num_deleted":"0","num_feature":"202","num_nodes":"31","size_leaf_vector":"0"}},{"base_weights":[-1.5767299E-2,-2.4047412E-2,2.689653E-1,-4.1341156E-2,1.2453251E-1,3.1813988E-1,-6.554981E-3,-7.388949E-2,3.189304E-2,9.4008796E-2,3.696991E-1,2.7347267E-1,7.308559E-1,1.586492E-1,-4.3042934E-1,-1.2260567E-1,1.8855168E-2,3.8330343E-2,-4.2739373E-1,3.2049187E-2,1.9290651E-1,4.0208438E-1,-7.705165E-1,3.6444578E-1,1.1218956E-1,8.8270867E-1,2.0647313E-1,2.0912145E-1,-7.028401E-2,-5.761238E-1,-4.4128817E-2],"categories":[],"categories_nodes":[],"categories_segments":[],"categories_sizes":[],"default_left":[1,1,1,1,1,1,1,1,1,1,1,1,1,1,1,0,0,0,0,0,0,0,0,0,0,1,1,1,1,1,1],"id":33,"left_children":[1,3,5,7,9,11,13,15,17,19,21,23,-1,-1,-1,-1,-1,-1,-1,-1,-1,-1,-1,-1,-1,-1,-1,-1,-1,-1,-1],"loss_changes":[1.2681022E1,1.3430802E1,2.061471E0,1.1160225E1,4.0436954E0,2.1782303E0,1.7489069E0,1.4645683E1,4.2767954E0,2.9718628E0,2.525385E0,1.6904602E0,7.7329254E-1,2.2268376E-1,3.6854923E-1,0E0,0E0,0E0,0E0,0E0,0E0,0E0,0E0,0E0,0E0,0E0,0E0,0E0,0E0,0E0,0E0],"parents":[2147483647,0,0,1,1,2,2,3,3,4,4,5,5,6,6,7,7,8,8,9,9,10,10,11,11,12,12,13,13,14,14],"right_children":[2,4,6,8,10,12,14,16,18,20,22,24,-1,-1,-1,-1,-1,-1,-1,-1,-1,-1,-1,-1,-1,-1,-1,-1,-1,-1,-1],"split_conditions":[4.5465548E-2,1.7616393E-1,1.3895321E-1,9.396872E-2,1.4906855E-1,1.8285215E-1,1.110798E-1,4.45902E-2,5.2259907E-2,1.1250894E-1,3.8720322E-1,1.06890105E-1,7.308559E-2,1.5864922E-2,-4.3042935E-2,-1.2260566E-2,1.8855168E-3,3.8330343E-3,-4.2739373E-2,3.2049187E-3,1.9290652E-2,4.020844E-2,-7.7051654E-2,3.644458E-2,1.1218957E-2,8.8270865E-2,2.0647313E-2,2.0912146E-2,-7.028401E-3,-5.761238E-2,-4.4128816E-3],"split_indices":[160,37,4,36,61,136,72,35,0,21,50,133,74,141,3,0,0,0,0,0,0,0,0,0,0,2147483647,2147483647,2147483647,2147483647,2147483647,2147483647],"split_type":[0,0,0,0,0,0,0,0,0,0,0,0,0,0,0,0,0,0,0,0,0,0,0,0,0,0,0,0,0,0,0],"sum_hessian":[5.375E3,5.224E3,1.51E2,4.68E3,5.44E2,1.28E2,2.3E1,3.24E3,1.44E3,4.85E2,5.9E1,1.17E2,1.1E1,1.7E1,6E0,2.124E3,1.116E3,1.421E3,1.9E1,2.99E2,1.86E2,5.8E1,1E0,7.4E1,4.3E1,8E0,3E0,1.4E1,3E0,4E0,2E0],"tree_param":{"num_deleted":"6","num_feature":"202","num_nodes":"31","size_leaf_vector":"0"}},{"base_weights":[-1.4185006E-2,-2.7928434E-2,1.3929464E-1,-4.2867713E-2,9.9817425E-2,1.9448508E-1,-3.969269E-2,-7.361281E-2,2.8364832E-2,7.1082294E-2,3.3990008E-1,1.7491576E-1,7.1154225E-1,-1.1400847E-1,3.2583407E-1,-1.1906338E-1,1.3288141E-2,1.568436E-2,2.8373805E-1,7.915539E-2,-1.1931775E0,3.733053E-1,-7.319907E-1,1.3046671E-1,3.9236435E-1,7.723609E-1,2.1268189E-2,-1.9901955E-1,2.0519072E-1,4.8265365E-1,-6.8247356E-2],"categories":[],"categories_nodes":[],"categories_segments":[],"categories_sizes":[],"default_left":[1,1,1,1,1,1,1,1,1,1,1,1,1,1,1,0,0,0,0,0,0,0,0,0,0,1,1,0,0,0,0],"id":34,"left_children":[1,3,5,7,9,11,13,15,17,19,21,23,-1,27,29,-1,-1,-1,-1,-1,-1,-1,-1,-1,-1,-1,-1,-1,-1,-1,-1],"loss_changes":[1.1343682E1,9.422387E0,4.373967E0,9.679926E0,3.5425215E0,3.2955828E0,2.8894107E0,1.2194298E1,4.3121405E0,4.820051E0,2.2426267E0,3.1093893E0,4.873519E-1,2.4287581E0,1.1453341E0,0E0,0E0,0E0,0E0,0E0,0E0,0E0,0E0,0E0,0E0,0E0,0E0,0E0,0E0,0E0,0E0],"parents":[2147483647,0,0,1,1,2,2,3,3,4,4,5,5,6,6,7,7,8,8,9,9,10,10,11,11,12,12,13,13,14,14],"right_children":[2,4,6,8,10,12,14,16,18,20,22,24,-1,28,30,-1,-1,-1,-1,-1,-1,-1,-1,-1,-1,-1,-1,-1,-1,-1,-1],"split_conditions":[1.098189E-1,1.7497578E-1,1.385125E-1,9.396872E-2,1.4906855E-1,2.3875922E-1,1.8558875E-1,4.45902E-2,4.5465548E-2,2.2340593E-1,3.8720322E-1,1.620487E-1,7.115423E-2,5.541912E-2,1.1770734E-1,-1.1906338E-2,1.3288142E-3,1.568436E-3,2.8373806E-2,7.91554E-3,-1.1931775E-1,3.733053E-2,-7.319907E-2,1.3046672E-2,3.9236438E-2,7.723609E-2,2.126819E-3,-1.9901956E-2,2.0519072E-2,4.8265364E-2,-6.8247356E-3],"split_indices":[97,37,11,36,61,38,32,35,128,80,50,47,1,138,7,0,0,0,0,0,0,0,0,0,0,2147483647,2147483647,0,0,0,0],"split_type":[0,0,0,0,0,0,0,0,0,0,0,0,0,0,0,0,0,0,0,0,0,0,0,0,0,0,0,0,0,0,0],"sum_hessian":[5.375E3,4.934E3,4.41E2,4.418E3,5.16E2,3.37E2,1.04E2,3.086E3,1.332E3,4.62E2,5.4E1,3.26E2,1.1E1,8.7E1,1.7E1,2.026E3,1.06E3,1.27E3,6.2E1,4.6E2,2E0,5.3E1,1E0,2.72E2,5.4E1,1E1,1E0,6.9E1,1.8E1,1.2E1,5E0],"tree_param":{"num_deleted":"2","num_feature":"202","num_nodes":"31","size_leaf_vector":"0"}},{"base_weights":[-1.2759516E-2,-2.0845912E-2,2.3056054E-1,-3.5068627E-2,1.1214823E-1,3.1310034E-1,8.14736E-2,-5.2641366E-2,8.114448E-2,1.21772856E-1,-5.872208E-1,3.3975405E-1,-3.1990945E-1,2.3816782E-1,-1.1044956E-1,-8.193398E-2,2.2189733E-2,1.4727758E-1,-1.4847059E-2,1.061966E-1,5.833967E-1,-8.2348853E-1,2.298981E-3,3.704181E-1,5.271113E-3,-4.6212083E-1,1.2446797E-1,3.8726756E-1,1.3550337E-2,-3.123355E-1,3.0436727E-1],"categories":[],"categories_nodes":[],"categories_segments":[],"categories_sizes":[],"default_left":[1,1,1,1,1,1,1,1,1,1,1,1,1,1,1,0,0,0,0,0,0,1,1,0,0,1,1,0,0,0,0],"id":35,"left_children":[1,3,5,7,9,11,13,15,17,19,-1,23,-1,27,29,-1,-1,-1,-1,-1,-1,-1,-1,-1,-1,-1,-1,-1,-1,-1,-1],"loss_changes":[1.0582529E1,9.847497E0,2.1033611E0,9.606614E0,3.4572806E0,1.9814901E0,1.9209203E0,8.956132E0,3.9253855E0,3.5116591E0,9.768851E-1,1.0955029E0,3.734969E-1,1.1669167E0,2.5236895E0,0E0,0E0,0E0,0E0,0E0,0E0,0E0,0E0,0E0,0E0,0E0,0E0,0E0,0E0,0E0,0E0],"parents":[2147483647,0,0,1,1,2,2,3,3,4,4,5,5,6,6,7,7,8,8,9,9,10,10,11,11,12,12,13,13,14,14],"right_children":[2,4,6,8,10,12,14,16,18,20,-1,24,-1,28,30,-1,-1,-1,-1,-1,-1,-1,-1,-1,-1,-1,-1,-1,-1,-1,-1],"split_conditions":[8.524376E-2,1.7725769E-1,1.1380024E-1,8.5326746E-2,5.3029597E-2,1.5205495E-1,5.4576706E-2,4.45902E-2,1.0830735E-1,1.6838065E-1,-5.872208E-2,1.5589468E-1,-3.1990945E-2,5.1680323E-2,5.0397497E-2,-8.193399E-3,2.2189734E-3,1.4727758E-2,-1.484706E-3,1.061966E-2,5.8339667E-2,-8.234885E-2,2.298981E-4,3.704181E-2,5.271113E-4,-4.6212085E-2,1.2446797E-2,3.872676E-2,1.3550337E-3,-3.123355E-2,3.0436728E-2],"split_indices":[155,41,72,72,0,187,62,37,1,101,16,53,3,112,78,0,0,0,0,0,0,2147483647,2147483647,0,0,2147483647,2147483647,0,0,0,0],"split_type":[0,0,0,0,0,0,0,0,0,0,0,0,0,0,0,0,0,0,0,0,0,0,0,0,0,0,0,0,0,0,0],"sum_hessian":[5.375E3,5.203E3,1.72E2,4.701E3,5.02E2,1.1E2,6.2E1,4.084E3,6.17E2,4.96E2,6E0,1.06E2,4E0,3.4E1,2.8E1,2.935E3,1.149E3,3.65E2,2.52E2,4.81E2,1.5E1,4E0,2E0,9.7E1,9E0,3E0,1E0,2E1,1.4E1,1.9E1,9E0],"tree_param":{"num_deleted":"4","num_feature":"202","num_nodes":"31","size_leaf_vector":"0"}},{"base_weights":[-1.1471969E-2,-6.8354993E-3,-3.961922E-1,-1.6826088E-2,1.6016333E-1,-4.6319556E-1,1.3073087E-1,-2.3482788E-2,2.8866842E-1,8.4522344E-2,3.5049614E-1,-5.259446E-1,-1.5297733E-1,3.219632E-1,-2.9531074E-1,-3.635451E-2,9.8423235E-2,3.3957848E-1,-2.2106092E-2,1.1895681E-1,-3.8483E-1,8.661864E-1,2.931113E-1,-6.015402E-1,-1.8608686E-1,-5.337799E-1,1.4087842E-1,1.08332485E-1,4.016954E-1,-2.3525754E-2,-4.1944033E-1],"categories":[],"categories_nodes":[],"categories_segments":[],"categories_sizes":[],"default_left":[1,1,1,1,1,1,1,1,1,1,1,1,1,1,1,0,0,0,0,0,0,0,0,0,0,0,0,1,1,1,1],"id":36,"left_children":[1,3,5,7,9,11,-1,15,17,19,21,23,25,-1,-1,-1,-1,-1,-1,-1,-1,-1,-1,-1,-1,-1,-1,-1,-1,-1,-1],"loss_changes":[9.586699E0,8.866992E0,2.3201141E0,1.0203177E1,4.2894635E0,1.0290985E0,7.4686253E-1,7.704918E0,1.7004128E0,3.536748E0,2.2614994E0,1.0955734E0,1.3061094E0,5.868286E-2,9.134203E-2,0E0,0E0,0E0,0E0,0E0,0E0,0E0,0E0,0E0,0E0,0E0,0E0,0E0,0E0,0E0,0E0],"parents":[2147483647,0,0,1,1,2,2,3,3,4,4,5,5,6,6,7,7,8,8,9,9,10,10,11,11,12,12,13,13,14,14],"right_children":[2,4,6,8,10,12,-1,16,18,20,22,24,26,-1,-1,-1,-1,-1,-1,-1,-1,-1,-1,-1,-1,-1,-1,-1,-1,-1,-1],"split_conditions":[5.1680323E-2,1.6058227E-1,2.1134904E-1,1.195043E-1,1.2443106E-1,1.7944361E-1,1.3073087E-2,1.7725769E-1,1.3895321E-1,2.1166939E-1,1.2891686E-1,5.8964252E-2,7.054682E-2,3.219632E-2,-2.9531075E-2,-3.635451E-3,9.842324E-3,3.395785E-2,-2.2106094E-3,1.1895682E-2,-3.8483E-2,8.661864E-2,2.931113E-2,-6.015402E-2,-1.8608687E-2,-5.3377993E-2,1.4087843E-2,1.08332485E-2,4.016954E-2,-2.3525755E-3,-4.1944034E-2],"split_indices":[0,74,28,160,16,19,24,41,4,65,16,49,6,2147483647,2147483647,0,0,0,0,0,0,0,0,0,0,0,0,2147483647,2147483647,2147483647,2147483647],"split_type":[0,0,0,0,0,0,0,0,0,0,0,0,0,0,0,0,0,0,0,0,0,0,0,0,0,0,0,0,0,0,0],"sum_hessian":[5.375E3,5.312E3,6.3E1,5.013E3,2.99E2,5.6E1,7E0,4.907E3,1.06E2,2.15E2,8.4E1,4.6E1,1E1,5E0,2E0,4.439E3,4.68E2,9.1E1,1.5E1,2.01E2,1.4E1,7E0,7.7E1,3.7E1,9E0,4E0,6E0,2E0,3E0,1E0,1E0],"tree_param":{"num_deleted":"6","num_feature":"202","num_nodes":"31","size_leaf_vector":"0"}},{"base_weights":[-1.0320621E-2,-1.9317806E-2,1.6896307E-1,-2.356948E-2,3.9551008E-1,2.6791766E-1,-2.0837916E-2,-4.3140545E-2,5.3782176E-2,4.2606407E-1,-5.8137196E-1,4.0829843E-1,1.9088718E-1,-1.3303989E-1,3.2691538E-1,-6.1905593E-2,6.6883035E-2,6.070754E-2,-4.8946768E-1,4.5178494E-1,-4.2998922E-1,5.3854626E-1,-9.664951E-3,1.08210936E-1,4.0075457E-1,-4.8452266E-2,-6.821752E-1,5.486472E-1,-2.2660242E-1],"categories":[],"categories_nodes":[],"categories_segments":[],"categories_sizes":[],"default_left":[1,1,1,1,1,1,1,1,1,1,0,1,1,1,1,0,0,0,0,0,0,0,0,0,0,0,0,0,0],"id":37,"left_children":[1,3,5,7,9,11,13,15,17,19,-1,21,23,25,27,-1,-1,-1,-1,-1,-1,-1,-1,-1,-1,-1,-1,-1,-1],"loss_changes":[8.675014E0,9.039532E0,4.832474E0,7.676047E0,1.7997789E0,1.7495575E0,3.5161488E0,8.357503E0,3.882209E0,1.3172026E0,0E0,3.2170963E0,1.8826003E0,3.1255507E0,2.8244405E0,0E0,0E0,0E0,0E0,0E0,0E0,0E0,0E0,0E0,0E0,0E0,0E0,0E0,0E0],"parents":[2147483647,0,0,1,1,2,2,3,3,4,4,5,5,6,6,7,7,8,8,9,9,11,11,12,12,13,13,14,14],"right_children":[2,4,6,8,10,12,14,16,18,20,-1,22,24,26,28,-1,-1,-1,-1,-1,-1,-1,-1,-1,-1,-1,-1,-1,-1],"split_conditions":[1.6084982E-1,4.5465548E-2,1.0278785E-1,8.5326746E-2,2.5340992E-1,1.840948E-1,1.6910064E-1,4.073654E-2,3.559751E-1,1.921488E-1,-5.8137197E-2,1.2172232E-1,5.115167E-2,1.622718E-1,1.446389E-1,-6.1905594E-3,6.688304E-3,6.070754E-3,-4.8946768E-2,4.5178495E-2,-4.299892E-2,5.3854626E-2,-9.664951E-4,1.0821094E-2,4.007546E-2,-4.8452266E-3,-6.821752E-2,5.4864723E-2,-2.2660242E-2],"split_indices":[81,194,4,54,199,81,33,56,39,4,0,85,107,46,28,0,0,0,0,0,0,0,0,0,0,0,0,0,0],"split_type":[0,0,0,0,0,0,0,0,0,0,0,0,0,0,0,0,0,0,0,0,0,0,0,0,0,0,0,0,0],"sum_hessian":[5.375E3,5.119E3,2.56E2,5.068E3,5.1E1,1.68E2,8.8E1,4.045E3,1.023E3,5E1,1E0,5.8E1,1.1E2,6.7E1,2.1E1,3.456E3,5.89E2,1.011E3,1.2E1,4.9E1,1E0,4.4E1,1.4E1,8E1,3E1,5.9E1,8E0,1.5E1,6E0],"tree_param":{"num_deleted":"0","num_feature":"202","num_nodes":"29","size_leaf_vector":"0"}},{"base_weights":[-9.295153E-3,-1.6206756E-2,1.9743104E-1,-1.1930319E-2,-3.7061366E-1,1.3322063E-1,4.024741E-1,-2.9414369E-2,7.3248185E-2,-4.6811917E-1,-3.3888463E-2,1.690696E-1,-2.4533316E-1,5.4363924E-1,1.2154524E-1,-5.6731775E-2,3.8468316E-2,6.2070496E-2,5.043244E-1,-5.295764E-1,5.0344244E-2,1.1038051E-1,-4.5822325E-1,2.3218933E-1,-1.0111155E-2,-4.440256E-1,2.630581E-1,6.704327E-1,2.1555988E-1,2.6113093E-1,-3.275981E-1],"categories":[],"categories_nodes":[],"categories_segments":[],"categories_sizes":[],"default_left":[1,1,1,1,1,1,1,1,1,1,1,1,1,1,1,0,0,0,0,0,0,1,1,0,0,0,0,1,1,0,0],"id":38,"left_children":[1,3,5,7,9,11,13,15,17,19,-1,23,25,-1,29,-1,-1,-1,-1,-1,-1,-1,-1,-1,-1,-1,-1,-1,-1,-1,-1],"loss_changes":[7.6844783E0,7.881238E0,2.2372499E0,7.659957E0,2.0197554E0,1.8599613E0,1.5598755E0,7.9148173E0,4.1896462E0,1.5561008E0,9.6885407E-1,1.3934579E0,1.3289666E0,9.7863626E-1,1.0259558E0,0E0,0E0,0E0,0E0,0E0,0E0,0E0,0E0,0E0,0E0,0E0,0E0,0E0,0E0,0E0,0E0],"parents":[2147483647,0,0,1,1,2,2,3,3,4,4,5,5,6,6,7,7,8,8,9,9,10,10,11,11,12,12,13,13,14,14],"right_children":[2,4,6,8,10,12,14,16,18,20,-1,24,26,-1,30,-1,-1,-1,-1,-1,-1,-1,-1,-1,-1,-1,-1,-1,-1,-1,-1],"split_conditions":[1.11819796E-1,5.1680323E-2,1.5345508E-1,1.4841393E-1,1.735482E-1,1.5910386E-1,4.5465548E-2,4.45902E-2,2.502688E-1,2.4565166E-1,-3.3888463E-3,1.3215165E-1,1.4484438E-1,5.4363925E-2,1.7658669E-1,-5.6731775E-3,3.8468316E-3,6.20705E-3,5.043244E-2,-5.2957643E-2,5.0344244E-3,1.1038051E-2,-4.5822326E-2,2.3218933E-2,-1.0111155E-3,-4.4402562E-2,2.630581E-2,6.704327E-2,2.1555988E-2,2.6113093E-2,-3.275981E-2],"split_indices":[145,0,31,34,19,116,103,38,54,3,5,65,135,54,52,0,0,0,0,0,0,2147483647,2147483647,0,0,0,0,2147483647,2147483647,0,0],"split_type":[0,0,0,0,0,0,0,0,0,0,0,0,0,0,0,0,0,0,0,0,0,0,0,0,0,0,0,0,0,0,0],"sum_hessian":[5.375E3,5.202E3,1.73E2,5.141E3,6.1E1,1.33E2,4E1,4.266E3,8.75E2,4.7E1,1.4E1,1.22E2,1.1E1,2.6E1,1.4E1,3.042E3,1.224E3,8.54E2,2.1E1,4.2E1,5E0,1.1E1,3E0,9E1,3.2E1,8E0,3E0,1.8E1,8E0,1.1E1,3E0],"tree_param":{"num_deleted":"4","num_feature":"202","num_nodes":"31","size_leaf_vector":"0"}},{"base_weights":[-8.355352E-3,-2.610408E-2,6.7928694E-2,-5.463588E-2,4.379127E-2,7.411958E-2,-5.0386894E-1,-9.078745E-2,2.9221484E-2,5.0213765E-2,-5.336912E-1,5.30548E-2,2.0832728E-1,-5.6517744E-1,5.4607887E-2,-1.18830435E-1,6.495175E-2,1.9201593E-2,4.8617035E-1,5.319183E-2,-1.2073848E0,-6.917002E-1,-1.1093505E-1,5.9836973E-2,-4.82011E-1,2.8794232E-1,-2.082404E-2],"categories":[],"categories_nodes":[],"categories_segments":[],"categories_sizes":[],"default_left":[1,1,1,1,1,1,1,1,1,1,1,1,1,1,1,0,0,0,0,0,0,1,1,0,0,0,0],"id":39,"left_children":[1,3,5,7,9,11,-1,15,17,19,-1,23,25,-1,-1,-1,-1,-1,-1,-1,-1,-1,-1,-1,-1,-1,-1],"loss_changes":[7.2805805E0,8.701268E0,3.6303825E0,9.394472E0,4.7185297E0,2.8301387E0,4.074962E-1,9.463125E0,4.2670565E0,4.753227E0,8.5845613E-1,3.1859932E0,2.4871655E0,0E0,0E0,0E0,0E0,0E0,0E0,0E0,0E0,0E0,0E0,0E0,0E0,0E0,0E0],"parents":[2147483647,0,0,1,1,2,2,3,3,4,4,5,5,6,6,7,7,8,8,9,9,10,10,11,11,12,12],"right_children":[2,4,6,8,10,12,-1,16,18,20,-1,24,26,-1,-1,-1,-1,-1,-1,-1,-1,-1,-1,-1,-1,-1,-1],"split_conditions":[4.45902E-2,4.45902E-2,3.559751E-1,4.45902E-2,1.1770202E-1,1.2638482E-1,-5.0386894E-2,1.3889357E-1,1.1295697E-1,3.2331774E-1,-5.3369123E-2,2.4519068E-1,1.203849E-1,-5.6517746E-2,5.460789E-3,-1.1883044E-2,6.495175E-3,1.9201593E-3,4.8617035E-2,5.319183E-3,-1.20738484E-1,-6.917002E-2,-1.1093505E-2,5.9836973E-3,-4.82011E-2,2.8794233E-2,-2.082404E-3],"split_indices":[59,39,39,38,0,93,1,34,168,82,17,91,102,2147483647,2147483647,0,0,0,0,0,0,2147483647,2147483647,0,0,0,0],"split_type":[0,0,0,0,0,0,0,0,0,0,0,0,0,0,0,0,0,0,0,0,0,0,0,0,0,0,0],"sum_hessian":[5.375E3,4.361E3,1.014E3,3.097E3,1.264E3,1.004E3,1E1,2.164E3,9.33E2,1.251E3,1.3E1,8.69E2,1.35E2,9E0,1E0,1.834E3,3.3E2,9.14E2,1.9E1,1.249E3,2E0,9E0,4E0,8.59E2,1E1,1E2,3.5E1],"tree_param":{"num_deleted":"4","num_feature":"202","num_nodes":"27","size_leaf_vector":"0"}},{"base_weights":[-7.555079E-3,-1.5080774E-3,-2.2264531E-1,-9.411442E-3,1.5465209E-1,-2.4362285E-1,4.218415E-1,-1.7456252E-2,1.5601803E-1,2.4220054E-1,-1.715307E-2,-2.9009226E-1,-1.2683487E-2,6.0725725E-1,9.581193E-2,-4.165644E-2,3.1805765E-2,1.1600424E-1,4.5404804E-1,1.8201381E-1,4.5615745E-1,8.667095E-2,-3.6410588E-1,-3.3082902E-1,-4.313451E-2,-2.1038277E-1,3.0490372E-1],"categories":[],"categories_nodes":[],"categories_segments":[],"categories_sizes":[],"default_left":[1,1,1,1,1,1,1,1,1,1,1,1,1,1,1,0,0,0,0,0,0,0,0,0,0,0,0],"id":40,"left_children":[1,3,5,7,9,11,-1,15,17,19,21,23,25,-1,-1,-1,-1,-1,-1,-1,-1,-1,-1,-1,-1,-1,-1],"loss_changes":[6.9919634E0,6.4562736E0,2.0901742E0,6.629019E0,3.7945557E0,1.530942E0,2.440725E-1,5.662845E0,2.702076E0,2.0674934E0,3.1294525E0,1.1828995E0,1.6338156E0,0E0,0E0,0E0,0E0,0E0,0E0,0E0,0E0,0E0,0E0,0E0,0E0,0E0,0E0],"parents":[2147483647,0,0,1,1,2,2,3,3,4,4,5,5,6,6,7,7,8,8,9,9,10,10,11,11,12,12],"right_children":[2,4,6,8,10,12,-1,16,18,20,22,24,26,-1,-1,-1,-1,-1,-1,-1,-1,-1,-1,-1,-1,-1,-1],"split_conditions":[2.763276E-1,1.6084982E-1,2.4193414E-1,1.08874775E-1,1.0278785E-1,1.14124045E-1,4.218415E-2,9.1086954E-2,1.8319917E-1,1.6713613E-1,1.036673E-1,5.713789E-2,5.713789E-2,6.0725726E-2,9.581193E-3,-4.165644E-3,3.1805765E-3,1.1600425E-2,4.5404803E-2,1.8201381E-2,4.5615744E-2,8.667096E-3,-3.641059E-2,-3.3082902E-2,-4.3134512E-3,-2.1038277E-2,3.0490372E-2],"split_indices":[1,81,37,121,4,38,5,33,6,62,107,47,28,2147483647,2147483647,0,0,0,0,0,0,0,0,0,0,0,0],"split_type":[0,0,0,0,0,0,0,0,0,0,0,0,0,0,0,0,0,0,0,0,0,0,0,0,0,0,0],"sum_hessian":[5.375E3,5.229E3,1.46E2,4.978E3,2.51E2,1.42E2,4E0,4.748E3,2.3E2,1.66E2,8.5E1,1.18E2,2.4E1,2E0,2E0,3.184E3,1.564E3,2.04E2,2.6E1,1.31E2,3.5E1,6.6E1,1.9E1,1.01E2,1.7E1,1.5E1,9E0],"tree_param":{"num_deleted":"2","num_feature":"202","num_nodes":"27","size_leaf_vector":"0"}},{"base_weights":[-6.7797867E-3,-1.8679991E-2,9.725149E-2,-2.7005633E-2,1.4853248E-1,1.0364899E-1,-8.0511767E-1,-9.975724E-3,-1.0405807E-1,1.6383217E-1,-5.6966037E-1,7.786997E-2,3.086046E-1,-3.5487756E-2,6.600517E-2,-1.1627895E-1,3.734374E-1,8.938893E-2,3.0860394E-1,-2.1922697E-1,-7.3020697E-1,2.335023E-2,1.6579302E-1,3.730417E-1,-1.0514771E-1],"categories":[],"categories_nodes":[],"categories_segments":[],"categories_sizes":[],"default_left":[1,1,1,1,1,1,0,1,1,1,1,1,1,0,0,0,0,0,0,1,1,0,0,0,0],"id":41,"left_children":[1,3,5,7,9,11,-1,13,15,17,-1,21,23,-1,-1,-1,-1,-1,-1,-1,-1,-1,-1,-1,-1],"loss_changes":[6.6572695E0,6.72114E0,3.270092E0,6.031128E0,2.609611E0,2.8766398E0,0E0,7.302458E0,4.8984833E0,2.3973017E0,1.2122333E-1,2.3401709E0,1.6655455E0,0E0,0E0,0E0,0E0,0E0,0E0,0E0,0E0,0E0,0E0,0E0,0E0],"parents":[2147483647,0,0,1,1,2,2,3,3,4,4,5,5,7,7,8,8,9,9,10,10,11,11,12,12],"right_children":[2,4,6,8,10,12,-1,14,16,18,-1,22,24,-1,-1,-1,-1,-1,-1,-1,-1,-1,-1,-1,-1],"split_conditions":[1.7616393E-1,1.2110827E-1,3.6016005E-1,1.2891719E-1,2.6858008E-1,1.4906855E-1,-8.051177E-2,1.1075245E-1,1.8697062E-1,1.1023627E-1,-5.6966037E-2,1.1250894E-1,1.4068083E-1,-3.5487756E-3,6.6005173E-3,-1.1627895E-2,3.734374E-2,8.938893E-3,3.0860394E-2,-2.1922698E-2,-7.30207E-2,2.335023E-3,1.6579302E-2,3.730417E-2,-1.0514772E-2],"split_indices":[37,114,50,3,110,61,0,40,80,39,12,21,8,0,0,0,0,0,0,2147483647,2147483647,0,0,0,0],"split_type":[0,0,0,0,0,0,0,0,0,0,0,0,0,0,0,0,0,0,0,0,0,0,0,0,0],"sum_hessian":[5.375E3,4.824E3,5.51E2,4.596E3,2.28E2,5.48E2,3E0,3.765E3,8.31E2,2.24E2,4E0,4.88E2,6E1,2.819E3,9.46E2,8.11E2,2E1,1.49E2,7.5E1,2E0,2E0,3.02E2,1.86E2,5.2E1,8E0],"tree_param":{"num_deleted":"2","num_feature":"202","num_nodes":"25","size_leaf_vector":"0"}},{"base_weights":[-6.1061173E-3,-2.992126E-2,4.138171E-2,-5.862589E-2,5.851524E-2,3.008727E-2,2.3468041E-1,-9.51607E-2,3.0487683E-2,1.956717E-2,1.6500053E-1,2.0439E-2,1.9450627E-1,3.6108324E-1,-1.7592102E-2,-1.2887721E-1,2.8016584E-2,1.9249368E-2,3.1342617E-1,5.2946325E-2,-1.522834E-1,1.8108505E-1,-4.7907308E-1,7.3322207E-3,1.855445E-1,2.5168702E-1,-3.7349927E-1,4.0042013E-1,-9.902256E-2,1.8446389E-1,-5.993547E-1],"categories":[],"categories_nodes":[],"categories_segments":[],"categories_sizes":[],"default_left":[1,1,1,1,1,1,1,1,1,1,1,1,1,1,1,0,0,0,0,0,0,0,0,0,0,0,0,0,0,0,0],"id":42,"left_children":[1,3,5,7,9,11,13,15,17,19,21,23,25,27,29,-1,-1,-1,-1,-1,-1,-1,-1,-1,-1,-1,-1,-1,-1,-1,-1],"loss_changes":[6.0811143E0,9.093932E0,3.9139671E0,8.806443E0,3.6381857E0,2.6896615E0,3.1632595E0,7.969269E0,2.4964314E0,3.7021928E0,2.5212631E0,3.4718623E0,3.1470287E0,1.2341948E0,4.1072125E0,0E0,0E0,0E0,0E0,0E0,0E0,0E0,0E0,0E0,0E0,0E0,0E0,0E0,0E0,0E0,0E0],"parents":[2147483647,0,0,1,1,2,2,3,3,4,4,5,5,6,6,7,7,8,8,9,9,10,10,11,11,12,12,13,13,14,14],"right_children":[2,4,6,8,10,12,14,16,18,20,22,24,26,28,30,-1,-1,-1,-1,-1,-1,-1,-1,-1,-1,-1,-1,-1,-1,-1,-1],"split_conditions":[4.45902E-2,9.381286E-2,1.6967957E-1,1.1077493E-1,1.2775888E-1,1.4307082E-1,5.1107533E-2,9.28707E-2,1.6145669E-1,1.3147235E-1,2.2172229E-1,1.7474903E-1,1.6160291E-1,1.967133E-1,1.1401762E-1,-1.2887721E-2,2.8016584E-3,1.9249369E-3,3.134262E-2,5.2946326E-3,-1.522834E-2,1.8108506E-2,-4.7907308E-2,7.3322206E-4,1.8554451E-2,2.5168702E-2,-3.734993E-2,4.0042013E-2,-9.902257E-3,1.844639E-2,-5.993547E-2],"split_indices":[32,44,76,30,23,94,19,38,93,3,80,53,117,108,4,0,0,0,0,0,0,0,0,0,0,0,0,0,0,0,0],"split_type":[0,0,0,0,0,0,0,0,0,0,0,0,0,0,0,0,0,0,0,0,0,0,0,0,0,0,0,0,0,0,0],"sum_hessian":[5.375E3,3.58E3,1.795E3,2.703E3,8.77E2,1.697E3,9.8E1,1.917E3,7.86E2,6.43E2,2.34E2,1.604E3,9.3E1,6.5E1,3.3E1,1.505E3,4.12E2,7.57E2,2.9E1,5.39E2,1.04E2,2.29E2,5E0,1.487E3,1.17E2,8.5E1,8E0,6E1,5E0,2.5E1,8E0],"tree_param":{"num_deleted":"0","num_feature":"202","num_nodes":"31","size_leaf_vector":"0"}},{"base_weights":[-5.4993723E-3,-8.821815E-3,3.2210925E-1,-3.1571575E-2,3.6516417E-2,3.86336E-1,-2.5609404E-1,-6.77054E-2,2.6809443E-2,2.7267495E-2,2.3786446E-1,4.176717E-1,-7.0608675E-2,-9.392485E-2,-3.8695493E-1,-1.2383649E-1,2.1270722E-2,5.3796507E-2,-1.1826103E-1,1.7079374E-2,2.0136768E-1,1.5509526E-1,5.7515544E-1,5.183072E-1,1.9658598E-1,-1.6732156E-1,1.7402807E-2,-1.2897785E-1,5.617082E-3],"categories":[],"categories_nodes":[],"categories_segments":[],"categories_sizes":[],"default_left":[1,1,1,1,1,1,1,1,1,1,1,1,1,1,1,0,0,0,0,0,0,0,0,1,1,1,1,1,1],"id":43,"left_children":[1,3,5,7,9,-1,-1,15,17,19,21,-1,-1,-1,-1,-1,-1,-1,-1,-1,-1,-1,-1,-1,-1,-1,-1,-1,-1],"loss_changes":[5.8544083E0,5.4914746E0,2.104289E0,7.480098E0,3.306461E0,7.3110676E-1,9.098494E-2,1.094021E1,5.315138E0,3.015489E0,2.0883465E0,9.2156506E-1,3.6959242E-2,1.4681455E-2,0E0,0E0,0E0,0E0,0E0,0E0,0E0,0E0,0E0,0E0,0E0,0E0,0E0,0E0,0E0],"parents":[2147483647,0,0,1,1,2,2,3,3,4,4,5,5,6,6,7,7,8,8,9,9,10,10,11,11,12,12,13,13],"right_children":[2,4,6,8,10,-1,-1,16,18,20,22,-1,-1,-1,-1,-1,-1,-1,-1,-1,-1,-1,-1,-1,-1,-1,-1,-1,-1],"split_conditions":[1.10566795E-1,4.45902E-2,1.7517456E-1,8.5326746E-2,1.6050243E-1,3.86336E-2,-2.5609404E-2,4.073654E-2,1.3731241E-1,1.529852E-1,1.5977046E-1,4.1767173E-2,-7.0608677E-3,-9.392485E-3,-3.8695496E-2,-1.2383649E-2,2.1270723E-3,5.3796507E-3,-1.1826104E-2,1.7079375E-3,2.0136768E-2,1.5509526E-2,5.7515543E-2,5.183072E-2,1.9658599E-2,-1.6732156E-2,1.7402808E-3,-1.2897785E-2,5.6170824E-4],"split_indices":[184,32,8,33,99,192,2,31,2,80,74,2147483647,2147483647,2147483647,2147483647,0,0,0,0,0,0,0,0,2147483647,2147483647,2147483647,2147483647,2147483647,2147483647],"split_type":[0,0,0,0,0,0,0,0,0,0,0,0,0,0,0,0,0,0,0,0,0,0,0,0,0,0,0,0,0],"sum_hessian":[5.375E3,5.322E3,5.3E1,3.544E3,1.778E3,4.8E1,5E0,2.189E3,1.355E3,1.701E3,7.7E1,4.5E1,3E0,3E0,2E0,1.342E3,8.47E2,1.143E3,2.12E2,1.608E3,9.3E1,6.3E1,1.4E1,3E1,1.5E1,1E0,2E0,2E0,1E0],"tree_param":{"num_deleted":"10","num_feature":"202","num_nodes":"29","size_leaf_vector":"0"}},{"base_weights":[-4.9324716E-3,-1.2948238E-2,1.20505966E-1,-2.3809342E-2,8.2205765E-2,2.560601E-1,5.4041542E-2,-2.7668847E-2,2.3806214E-1,8.8412605E-2,-7.3747647E-1,3.38682E-1,-2.5182083E-2,1.5810564E-2,5.0513655E-1,-3.7157726E-2,7.7629924E-2,2.941857E-1,-1.500743E-1,1.2019613E-1,-6.099848E-2,2.7734268E-1,6.733829E-1,-9.650182E-2,5.2999663E-1,4.40727E-2,-3.668576E-1,6.567096E-1,1.17801085E-1],"categories":[],"categories_nodes":[],"categories_segments":[],"categories_sizes":[],"default_left":[1,1,1,1,1,1,1,1,1,1,0,1,1,1,1,0,0,0,0,0,0,0,0,0,0,0,0,1,1],"id":44,"left_children":[1,3,5,7,9,11,13,15,17,19,-1,21,23,25,-1,-1,-1,-1,-1,-1,-1,-1,-1,-1,-1,-1,-1,-1,-1],"loss_changes":[5.407049E0,5.225152E0,2.8962393E0,4.592108E0,2.7005987E0,2.4716258E0,3.7515988E0,4.4711614E0,1.4818671E0,2.452969E0,0E0,1.4967289E0,1.0410256E0,2.2008023E0,9.20702E-1,0E0,0E0,0E0,0E0,0E0,0E0,0E0,0E0,0E0,0E0,0E0,0E0,0E0,0E0],"parents":[2147483647,0,0,1,1,2,2,3,3,4,4,5,5,6,6,7,7,8,8,9,9,11,11,12,12,13,13,14,14],"right_children":[2,4,6,8,10,12,14,16,18,20,-1,22,24,26,-1,-1,-1,-1,-1,-1,-1,-1,-1,-1,-1,-1,-1,-1,-1],"split_conditions":[1.7106585E-1,1.7490299E-1,1.9407691E-1,4.5465548E-2,3.6016005E-1,1.475905E-1,2.1459103E-1,1.7778894E-1,1.5620232E-1,1.5226966E-1,-7.374765E-2,1.7455551E-1,1.8865108E-1,2.0256287E-1,5.0513655E-2,-3.7157726E-3,7.7629923E-3,2.941857E-2,-1.5007431E-2,1.2019613E-2,-6.099848E-3,2.7734268E-2,6.733829E-2,-9.650182E-3,5.2999664E-2,4.40727E-3,-3.668576E-2,6.567096E-2,1.1780108E-2],"split_indices":[64,37,64,182,50,19,48,41,157,8,0,75,64,83,29,0,0,0,0,0,0,0,0,0,0,0,0,2147483647,2147483647],"split_type":[0,0,0,0,0,0,0,0,0,0,0,0,0,0,0,0,0,0,0,0,0,0,0,0,0,0,0,0,0],"sum_hessian":[5.375E3,5.053E3,3.22E2,4.536E3,5.17E2,1.05E2,2.17E2,4.471E3,6.5E1,5.14E2,3E0,8.1E1,2.4E1,2.01E2,1.6E1,4.102E3,3.69E2,5.7E1,8E0,4.24E2,9E1,7E1,1.1E1,2.2E1,2E0,1.88E2,1.3E1,1.1E1,5E0],"tree_param":{"num_deleted":"2","num_feature":"202","num_nodes":"29","size_leaf_vector":"0"}},{"base_weights":[-4.419276E-3,-9.881031E-4,-2.891912E-1,3.3726976E-3,-2.0921727E-1,-3.4503594E-1,1.4485164E-1,-4.914067E-4,2.2298808E-1,-2.5825316E-1,2.190504E-2,-3.8745788E-1,-7.573472E-2,2.709724E-1,-3.6899686E-1,-4.278652E-3,2.1594663E-1,2.572403E-1,-5.7774425E-1,-3.068611E-1,8.3270274E-2,-3.389864E-1,1.3331455E-1,-4.1791096E-1,5.961699E-2,7.445827E-2,-6.3863933E-1,7.629572E-2,3.97906E-1],"categories":[],"categories_nodes":[],"categories_segments":[],"categories_sizes":[],"default_left":[1,1,1,1,1,1,1,1,1,1,1,1,1,1,1,0,0,0,0,0,0,1,1,1,1,1,1,1,1],"id":45,"left_children":[1,3,5,7,9,-1,-1,15,17,19,-1,-1,-1,-1,-1,-1,-1,-1,-1,-1,-1,-1,-1,-1,-1,-1,-1,-1,-1],"loss_changes":[5.252613E0,4.8251534E0,1.6012764E0,4.41716E0,1.2409854E0,6.2184E-1,6.184437E-1,4.194529E0,2.6170344E0,1.51962E0,8.4932655E-1,6.920395E-1,8.0845094E-1,1.4261854E-1,0E0,0E0,0E0,0E0,0E0,0E0,0E0,0E0,0E0,0E0,0E0,0E0,0E0,0E0,0E0],"parents":[2147483647,0,0,1,1,2,2,3,3,4,4,5,5,6,6,7,7,8,8,9,9,10,10,11,11,12,12,13,13],"right_children":[2,4,6,8,10,-1,-1,16,18,20,-1,-1,-1,-1,-1,-1,-1,-1,-1,-1,-1,-1,-1,-1,-1,-1,-1,-1,-1],"split_conditions":[5.1680323E-2,2.9876196E-1,2.1134904E-1,1.7818412E-1,1.23195246E-1,-3.4503594E-2,1.4485165E-2,1.7289689E-1,2.472113E-1,4.9015677E-1,2.190504E-3,-3.8745787E-2,-7.573472E-3,2.709724E-2,-3.6899686E-2,-4.278652E-4,2.1594664E-2,2.572403E-2,-5.7774425E-2,-3.068611E-2,8.327028E-3,-3.389864E-2,1.3331455E-2,-4.1791096E-2,5.961699E-3,7.445827E-3,-6.386393E-2,7.629572E-3,3.97906E-2],"split_indices":[0,1,28,115,40,46,20,114,117,1,1,2147483647,2147483647,2147483647,2147483647,0,0,0,0,0,0,2147483647,2147483647,2147483647,2147483647,2147483647,2147483647,2147483647,2147483647],"split_type":[0,0,0,0,0,0,0,0,0,0,0,0,0,0,0,0,0,0,0,0,0,0,0,0,0,0,0,0,0],"sum_hessian":[5.375E3,5.312E3,6.3E1,5.204E3,1.08E2,5.6E1,7E0,5.115E3,8.9E1,8.9E1,1.9E1,4.8E1,8E0,6E0,1E0,5.028E3,8.7E1,8.6E1,3E0,7.8E1,1.1E1,4E0,1.5E1,4.5E1,3E0,7E0,1E0,3E0,3E0],"tree_param":{"num_deleted":"12","num_feature":"202","num_nodes":"29","size_leaf_vector":"0"}},{"base_weights":[-3.9868564E-3,-1.2223565E-2,9.90648E-2,-1.7333884E-2,1.6851732E-1,1.0692778E-1,-7.021712E-1,-2.0351857E-2,2.978307E-1,1.8978824E-1,-5.861877E-1,6.8490736E-2,2.974929E-1,5.3795576E-2,-9.72092E-1,-3.12923E-2,6.2332533E-2,3.704444E-1,-1.5965186E-1,2.555497E-1,3.6722952E-3,8.913638E-2,-2.7413723E-1,3.3452675E-1,-2.212256E-1],"categories":[],"categories_nodes":[],"categories_segments":[],"categories_sizes":[],"default_left":[1,1,1,1,1,1,1,1,1,1,0,1,1,1,1,0,0,0,0,0,0,0,0,0,0],"id":46,"left_children":[1,3,5,7,9,11,-1,15,17,19,-1,21,23,-1,-1,-1,-1,-1,-1,-1,-1,-1,-1,-1,-1],"loss_changes":[4.5643945E0,4.6017427E0,2.582524E0,4.612521E0,2.3105493E0,2.8729043E0,8.684987E-1,4.3422394E0,1.5872388E0,1.6391215E0,0E0,2.3587809E0,1.3418765E0,0E0,0E0,0E0,0E0,0E0,0E0,0E0,0E0,0E0,0E0,0E0,0E0],"parents":[2147483647,0,0,1,1,2,2,3,3,4,4,5,5,6,6,7,7,8,8,9,9,11,11,12,12],"right_children":[2,4,6,8,10,12,-1,16,18,20,-1,22,24,-1,-1,-1,-1,-1,-1,-1,-1,-1,-1,-1,-1],"split_conditions":[1.6421655E-1,1.0676776E-1,3.1965828E-1,1.4015283E-1,1.5907308E-1,1.560164E-1,-7.0217125E-2,1.7277494E-1,1.8571678E-1,1.3056119E-1,-5.8618773E-2,2.4274436E-1,2.3016262E-1,5.3795576E-3,-9.72092E-2,-3.12923E-3,6.2332535E-3,3.704444E-2,-1.5965186E-2,2.555497E-2,3.6722954E-4,8.913638E-3,-2.7413724E-2,3.3452675E-2,-2.212256E-2],"split_indices":[60,151,94,161,60,20,4,33,105,118,0,55,39,2147483647,2147483647,0,0,0,0,0,0,0,0,0,0],"split_type":[0,0,0,0,0,0,0,0,0,0,0,0,0,0,0,0,0,0,0,0,0,0,0,0,0],"sum_hessian":[5.375E3,4.978E3,3.97E2,4.842E3,1.36E2,3.94E2,3E0,4.797E3,4.5E1,1.33E2,3E0,3.29E2,6.5E1,1E0,2E0,4.237E3,5.6E2,3.9E1,6E0,9.8E1,3.5E1,3.11E2,1.8E1,6.1E1,4E0],"tree_param":{"num_deleted":"2","num_feature":"202","num_nodes":"25","size_leaf_vector":"0"}},{"base_weights":[-3.6041413E-3,-1.0446583E-2,1.11392535E-1,-1.6311252E-2,1.4913046E-1,1.24891944E-1,-7.1545076E-1,-1.7950588E-3,-8.1202306E-2,2.0873338E-1,-6.469808E-2,1.6110095E-1,-1.9216955E-1,-7.894534E-1,-2.0972002E-1,2.202544E-2,-6.205892E-2,-9.517525E-2,1.471509E-1,2.7325645E-1,-2.9034192E-2,-2.4840471E-1,1.5142003E-1,8.631266E-2,3.1837022E-1,-8.091685E-2,-9.22896E-1],"categories":[],"categories_nodes":[],"categories_segments":[],"categories_sizes":[],"default_left":[1,1,1,1,1,1,1,1,1,1,1,1,1,1,1,0,0,0,0,0,0,0,0,0,0,0,0],"id":47,"left_children":[1,3,5,7,9,11,-1,15,17,19,21,23,25,-1,-1,-1,-1,-1,-1,-1,-1,-1,-1,-1,-1,-1,-1],"loss_changes":[4.2313128E0,4.7519555E0,3.4602463E0,4.6117454E0,2.3075695E0,3.4521422E0,2.1563053E-2,5.746299E0,2.8697414E0,2.171084E0,1.6257067E0,3.1247106E0,2.4454765E0,0E0,0E0,0E0,0E0,0E0,0E0,0E0,0E0,0E0,0E0,0E0,0E0,0E0,0E0],"parents":[2147483647,0,0,1,1,2,2,3,3,4,4,5,5,6,6,7,7,8,8,9,9,10,10,11,11,12,12],"right_children":[2,4,6,8,10,12,-1,16,18,20,22,24,26,-1,-1,-1,-1,-1,-1,-1,-1,-1,-1,-1,-1,-1,-1],"split_conditions":[1.6058227E-1,1.1425334E-1,2.7867854E-1,1.2873243E-1,1.2046774E-1,1.9866702E-1,-7.154508E-2,1.14493154E-1,2.1650276E-1,1.367689E-1,4.14413E-2,1.1128718E-1,1.4900652E-1,-7.894534E-2,-2.0972002E-2,2.2025441E-3,-6.2058917E-3,-9.517525E-3,1.471509E-2,2.7325645E-2,-2.9034193E-3,-2.4840472E-2,1.5142003E-2,8.631266E-3,3.1837024E-2,-8.091685E-3,-9.2289604E-2],"split_indices":[74,132,87,3,7,65,1,2,37,53,146,16,105,2147483647,2147483647,0,0,0,0,0,0,0,0,0,0,0,0],"split_type":[0,0,0,0,0,0,0,0,0,0,0,0,0,0,0,0,0,0,0,0,0,0,0,0,0,0,0],"sum_hessian":[5.375E3,5.074E3,3.01E2,4.895E3,1.79E2,2.97E2,4E0,4.001E3,8.94E2,1.4E2,3.9E1,2.67E2,3E1,3E0,1E0,2.868E3,1.133E3,8.43E2,5.1E1,1.1E2,3E1,2.1E1,1.8E1,1.82E2,8.5E1,2.7E1,3E0],"tree_param":{"num_deleted":"2","num_feature":"202","num_nodes":"27","size_leaf_vector":"0"}},{"base_weights":[-3.2652179E-3,-2.3245385E-4,-2.54981E-1,-1.2766132E-2,6.002534E-2,-3.3019307E-1,1.272467E-2,-3.232704E-2,4.7083255E-2,5.0672058E-2,4.3738037E-1,-3.8121325E-1,1.07490286E-1,1.4832556E-1,-3.9725918E-1,-5.93924E-2,4.2778395E-2,7.0515424E-2,-6.791383E-2,5.4411355E-2,-7.94924E-1,2.295092E-1,6.6387486E-1,-4.2928618E-1,8.922765E-2,4.0985286E-1,-3.3148992E-1,2.5856978E-1,-1.368053E-1],"categories":[],"categories_nodes":[],"categories_segments":[],"categories_sizes":[],"default_left":[1,1,1,1,1,1,1,1,1,1,1,1,1,1,1,0,0,0,0,0,0,1,1,0,0,1,1,1,1],"id":48,"left_children":[1,3,5,7,9,11,-1,15,17,19,-1,23,-1,-1,-1,-1,-1,-1,-1,-1,-1,-1,-1,-1,-1,-1,-1,-1,-1],"loss_changes":[4.1039495E0,4.013419E0,1.2928219E0,5.151468E0,3.2073376E0,1.1575108E0,8.9283633E-1,6.7431593E0,2.9257686E0,2.8700216E0,8.8343143E-1,1.0560007E0,9.322492E-1,4.12582E-1,0E0,0E0,0E0,0E0,0E0,0E0,0E0,0E0,0E0,0E0,0E0,0E0,0E0,0E0,0E0],"parents":[2147483647,0,0,1,1,2,2,3,3,4,4,5,5,6,6,7,7,8,8,9,9,10,10,11,11,12,12,13,13],"right_children":[2,4,6,8,10,12,-1,16,18,20,-1,24,-1,-1,-1,-1,-1,-1,-1,-1,-1,-1,-1,-1,-1,-1,-1,-1,-1],"split_conditions":[5.1680323E-2,1.4841393E-1,1.735482E-1,4.45902E-2,2.502688E-1,2.4565166E-1,1.272467E-3,4.45902E-2,1.3387744E-1,3.2687122E-1,4.3738037E-2,1.654557E-1,1.0749029E-2,1.4832556E-2,-3.972592E-2,-5.93924E-3,4.27784E-3,7.0515424E-3,-6.791383E-3,5.4411357E-3,-7.9492405E-2,2.2950921E-2,6.638749E-2,-4.2928617E-2,8.922765E-3,4.0985286E-2,-3.3148993E-2,2.5856977E-2,-1.368053E-2],"split_indices":[0,34,19,47,54,3,5,39,66,82,24,49,0,2147483647,2147483647,0,0,0,0,0,0,2147483647,2147483647,0,0,2147483647,2147483647,2147483647,2147483647],"split_type":[0,0,0,0,0,0,0,0,0,0,0,0,0,0,0,0,0,0,0,0,0,0,0,0,0,0,0,0,0],"sum_hessian":[5.375E3,5.312E3,6.3E1,4.398E3,9.14E2,4.9E1,1.4E1,3.315E3,1.083E3,8.93E2,2.1E1,4.4E1,5E0,1.1E1,3E0,2.437E3,8.78E2,9E2,1.83E2,8.9E2,3E0,1.2E1,9E0,4E1,4E0,3E0,2E0,8E0,3E0],"tree_param":{"num_deleted":"8","num_feature":"202","num_nodes":"29","size_leaf_vector":"0"}},{"base_weights":[-2.9486828E-3,1.5444432E-3,-1.627861E-1,-7.0469286E-3,8.542205E-2,-1.8057781E-1,3.7861413E-1,-1.5765645E-2,9.430369E-2,1.1134179E-1,-3.1226945E-1,-2.0809299E-1,6.809121E-2,2.0019464E-1,5.4614604E-1,-2.5334934E-2,9.2866E-2,1.03064656E-1,-7.462323E-1,1.23550855E-1,-5.101264E-1,-4.571341E-1,7.65407E-2,-2.4328595E-1,-1.5515537E-2,2.466324E-1,-1.7118905E-1],"categories":[],"categories_nodes":[],"categories_segments":[],"categories_sizes":[],"default_left":[1,1,1,1,1,1,1,1,1,1,1,1,1,1,1,0,0,0,0,0,0,0,0,1,1,1,1],"id":49,"left_children":[1,3,5,7,9,-1,-1,15,17,19,21,-1,-1,-1,-1,-1,-1,-1,-1,-1,-1,-1,-1,-1,-1,-1,-1],"loss_changes":[3.8611314E0,3.7694635E0,1.4843378E0,4.1943927E0,5.044487E0,9.9259996E-1,4.011929E-2,4.5450892E0,2.8457391E0,3.5305367E0,1.7247343E0,8.7050676E-1,6.830415E-1,0E0,0E0,0E0,0E0,0E0,0E0,0E0,0E0,0E0,0E0,0E0,0E0,0E0,0E0],"parents":[2147483647,0,0,1,1,2,2,3,3,4,4,5,5,6,6,7,7,8,8,9,9,10,10,11,11,12,12],"right_children":[2,4,6,8,10,-1,-1,16,18,20,22,-1,-1,-1,-1,-1,-1,-1,-1,-1,-1,-1,-1,-1,-1,-1,-1],"split_conditions":[2.763276E-1,1.895573E-1,3.025484E-1,1.7150232E-1,2.1816513E-1,-1.8057782E-2,3.7861414E-2,1.7084E-1,3.6647493E-1,2.6544768E-1,1.117146E-1,-2.0809298E-2,6.8091215E-3,2.0019464E-2,5.4614604E-2,-2.5334933E-3,9.2866E-3,1.0306465E-2,-7.462323E-2,1.2355085E-2,-5.1012643E-2,-4.571341E-2,